젶	-0.0348685 -0.00991961 0.0264294 0.0323872 -0.0187177 0.00390788 0.031759 -0.00847595 -0.0317713 0.0155909 0.0140751 0.0314763 -0.00392493 -0.0201975 0.00336116 0.00394879 -0.0330498 -0.0101675 0.0109859 -0.0316864 0.0358136 0.0375764 -0.0358061 -0.0325274 -0.0184305 -0.00810948 -0.0291386 0.0210473 0.0124883 -0.018967 0.0160246 -0.0143136 0.0269774 0.0166602 0.0206909 -0.00316253 0.0337855 0.0176804 0.0286361 -0.0159225 -0.0297951 0.0263932 -0.00799848 -0.0211642 -0.0278822 -0.00512127 0.0163863 0.0258457 0.0305659 -0.024459 -0.0241991 0.0211478 0.0305408 0.0366948 0.0247523 0.0128149 0.0138943 0.0293338 -0.0102888 -0.00723859
퉤	-0.00271057 -0.0306356 -0.0309128 0.0152219 0.0331173 -0.0335457 0.00497277 -0.00243371 0.030179 0.0259713 0.0345455 -0.0198698 -0.0367108 -0.0372747 -0.0342949 0.0055149 0.0317012 0.0248975 -0.0165103 -0.0224115 0.0232239 0.02432 -0.0137182 -0.00446071 -0.0191583 0.0332304 0.0152545 0.033636 -0.00978241 -0.0248604 -0.0197432 -0.0117232 0.0182281 0.0372511 -0.029299 0.0108058 -0.0213294 -0.0188711 0.0352067 -0.00733684 -0.00830674 0.038387 0.0203178 0.0045001 0.0274783 0.0139368 0.0248468 0.0103927 -0.0112385 0.0321517 -0.0343857 -0.01717 -0.011116 -0.00145862 -0.0273504 0.0132567 0.0258522 -0.0233283 0.0287732 -0.00476839
ㄷ	-0.027827 -0.00151777 0.0332816 -0.00560866 -0.00249439 -0.0063677 0.0156301 0.0259098 -0.00859441 -0.0259275 0.0325524 0.0306416 0.022918 0.00660028 -0.00706796 -0.0221042 -0.0377644 0.0377784 -0.00619165 -0.00267353 0.00947759 -0.0180627 -0.0173211 0.0197259 0.0160903 -0.00559362 0.0123721 -0.0220671 0.00571823 0.0196245 -0.0150582 -0.0198033 0.0310944 -0.0183722 -0.0191728 -0.036022 0.0257967 -0.0184629 0.0309127 -0.011056 -0.00120855 0.0148778 -0.0102464 0.0348769 0.0177448 0.00215937 0.0332413 0.0231989 -0.030717 0.0138544 0.0186689 0.0358418 0.015602 0.00538595 -0.00254696 -0.0025054 -0.0357028 -0.0366329 0.0383155 -0.0381877
럴	-0.0164768 0.0202338 0.0291197 -0.0155 0.0268582 0.0155028 -0.000260122 -0.00972349 -0.0334723 0.0123154 0.0386997 -0.0144448 0.00164715 -0.0245973 0.0374249 -0.0240003 -0.0202506 -0.0171946 0.0381097 0.006463 0.00163558 0.0333816 -0.00652087 -0.0186348 -0.0258277 0.0223718 0.0202056 0.00623618 -0.0364605 0.015673 0.0168207 -0.00310647 0.0222313 0.0377022 -0.00673832 -0.00611854 0.0182564 -0.00570294 -0.0104229 0.0289502 0.0272909 0.0313066 -0.000655729 -0.0120234 0.00206789 0.00122573 -0.0171874 0.0367694 0.0283109 0.0071784 -0.023346 -0.0264697 0.0103727 -0.0318188 -0.0075226 0.0324487 0.0153874 0.00802204 0.0202184 -0.034053
딪	0.0188952 -0.0176624 0.022529 -0.0191906 -0.0288995 -0.0219087 0.0216101 0.0302013 -0.0307175 0.0051639 0.0339667 -0.00492781 0.0197381 0.025703 0.0333292 0.0277504 -0.0102482 0.0282226 -0.0170389 -0.0253893 0.0296746 0.0117661 0.0165554 0.0371252 -0.0379426 -0.0216904 0.0151722 0.0187747 0.0304577 -0.0303609 -0.0301434 -0.008267 0.0325811 0.0237528 -0.0337058 0.0166696 -0.0142016 -0.0201118 0.0298948 -0.0291224 0.0142274 0.0201603 -0.0219487 -0.0151304 -0.0345452 -0.0310513 -0.033981 -0.00403487 -0.0323529 0.0278233 -0.0303318 0.0194731 0.0164912 0.0304172 -0.0316484 -0.0332671 -0.0239951 0.0136191 0.00610559 0.0249206
퐝	-0.0312766 -0.00778945 0.0116676 -0.00943943 -0.0239321 0.0292399 -0.0362492 0.0111412 0.00549631 -0.0312399 0.0148357 0.0296392 -0.0025404 0.0265042 0.00318053 -0.0130976 0.0172155 0.0265264 0.0382205 -0.00829502 -0.0345821 0.0373292 -0.00129114 -0.0153006 0.00987738 -0.0289242 0.0293819 0.00319989 0.0214707 -0.00827369 -0.0296776 0.0130335 -0.0298169 -0.0356921 -0.0377706 0.0152778 -0.0151501 -0.0341538 0.0193638 -0.0259198 -0.0237813 0.0219052 0.00439011 -0.0207701 -0.0222747 -0.00269433 -0.0372245 0.0240313 -0.0301697 0.0277272 0.0346147 0.0302103 -0.0130837 -0.0377958 -0.00357467 0.0302345 0.0226654 -0.0300139 -0.0333902 -0.0132197
쌋	0.0254841 0.00110956 0.010826 -0.0340339 0.0344437 0.00684246 0.0283681 0.0185235 -0.0300254 0.0176929 0.000703014 0.0366252 -0.00108201 0.0306515 0.0141883 -0.0107246 0.0245962 -0.00389898 -0.00493969 0.00428801 -0.0330189 0.000253845 0.00151662 -0.00301818 -0.0129351 -0.0148216 0.000361077 0.0198078 -0.00939781 -0.0254759 0.00186186 0.0255154 0.0217317 -0.0357224 0.0110425 0.00268203 -0.0173088 0.0203921 0.0030292 0.0131321 0.0307278 0.036953 0.0181084 0.00303746 0.00576196 -0.00294014 -0.0229412 -0.0343469 0.0265771 -0.00135592 -0.0153626 -0.025297 0.0154932 0.000430714 0.0368658 0.0350694 -0.00737008 -0.0115958 0.00691823 0.0138081
밤	-0.026934 0.0322539 -0.00134574 -0.0242692 -0.0150941 0.0139997 0.00160582 -0.02427 -0.0322352 0.0264985 -0.00715427 -0.0296048 -0.0314671 0.0151973 -0.00700476 0.0296816 0.0258163 -0.00253057 0.0272114 -0.000176057 -0.0136531 -0.0384727 0.00277992 -0.0101493 -0.00727575 0.0234792 0.0232232 0.00360291 -0.0293389 0.0277743 -0.0109572 0.0135667 -0.00858279 0.034099 -0.0053557 0.0013293 -0.0267485 -0.0177859 -0.0385199 -0.0332933 -0.0165856 -0.0279276 0.00791603 -0.00670249 -0.00235241 -0.00357018 -0.0222731 0.0278336 -0.0383505 -0.0182504 -0.00705807 0.00147307 0.0214341 -0.0377232 0.036685 -0.0161998 0.00525475 0.0139506 0.0293313 -0.0154227
짇	0.0365167 -0.0237233 -0.0246141 0.0316818 0.0101436 0.0340333 0.00414871 0.0141317 -0.0331442 -0.0211555 0.0374725 0.0253324 0.0199694 -0.0270058 0.013632 0.0098914 0.0177405 0.0198947 0.0120895 -0.00278604 -0.00683427 -0.00459987 0.0335519 -0.0167304 -0.0361068 -0.00696471 -0.026938 -0.0105513 0.00308051 0.0320594 0.0142263 -0.0363592 -0.00262471 -0.00619973 0.00739085 -0.0144312 -0.00237961 0.000809737 0.0376084 0.0049948 -0.00618961 0.0169464 -0.0382668 0.00827675 -0.0308694 0.0138612 0.0266416 -0.0378461 -0.00601539 0.0216025 0.0362546 -0.025367 0.0322024 0.0207518 -0.0188529 0.0298081 -0.0153014 -0.0135927 -0.00571189 0.0198144
쿡	0.028078 0.0385554 -0.00291076 0.0185296 -0.0253621 0.0231232 -0.0216377 -0.00668468 0.00262116 -0.0305555 0.0169093 0.0111445 0.038123 0.00834629 0.00202023 0.00785132 -0.00956842 -0.0324052 0.0332464 -0.00319756 -0.00295769 -0.00554837 -0.0353978 0.0332634 0.0104516 0.00154223 -0.0336404 -0.0049455 -0.0239085 0.0296741 0.0383374 -0.0288476 0.0180312 -0.0117009 0.0201144 0.0243167 -0.016805 -0.0298651 0.00342876 0.00819843 -0.0228213 -0.0312058 -0.015019 -0.0298159 0.00350447 0.0325684 -0.00762393 0.0166125 0.000626687 -0.0260339 -0.0386431 0.0114816 -0.0254656 -0.0153549 -0.0205083 -0.0308138 0.0171387 -0.00921405 0.0292581 -0.0237597
뗼	0.00912973 -0.00892192 -0.00257082 -0.0095586 0.0150868 0.031756 -0.0249911 -0.0156188 0.00758872 -0.0266132 0.0264034 0.0364154 -0.011544 0.0205228 0.00557432 -0.0152253 -0.0337261 0.0174471 -0.00728307 -0.00101182 0.0287966 0.038475 0.0289634 -0.0032589 0.032074 0.0228848 -0.0270884 -0.0327191 0.0367151 0.0243473 -0.0132673 -0.0148425 0.0242543 -0.0119635 -0.0154468 0.0124696 -0.0189739 0.0179843 -0.00867992 0.0211239 0.031168 -0.0279218 0.0368834 -0.0383009 0.00449655 0.0374137 0.0275569 -0.0163372 -0.00543342 0.0361712 0.0340306 -0.0175407 0.0185024 -0.00650374 0.0244834 0.00469783 -0.0256963 -0.0017429 0.0327541 -0.0297086
쯩	-0.0385141 -0.0384906 -0.00826121 -0.012239 -0.0124396 0.0293826 0.0180743 0.0135704 -0.00918231 -0.0367794 0.0118824 0.00419658 0.00778204 -0.0116064 -0.0381665 -0.0196979 -0.0384655 -0.0154992 0.0183994 -0.0218136 -0.0167127 -0.0129733 -0.00747142 0.0368048 0.01952 -0.0243949 -0.021146 -0.0142657 -0.00842347 -0.0133511 0.0211798 -0.0154753 -0.0115241 -0.0387546 -0.00800943 -0.00631889 0.0379885 0.00405782 0.00565923 0.0079615 0.0058236 0.033912 0.0183419 -0.0247219 0.00930908 0.0361143 0.0049974 0.0330312 0.012484 0.0133998 -0.00260526 -0.000169266 0.0097966 -0.038101 -0.0178884 -0.0154737 -0.0361785 0.029628 0.0354274 0.0077773
윔	0.0113988 0.0185724 -0.00030335 0.022649 0.0115306 0.0169112 0.0174172 -0.0237618 0.00190664 0.00838538 0.0154105 0.0131456 0.0257949 0.0178675 0.0170646 -0.0380337 0.0146681 0.0108273 0.0338984 0.0204891 -0.0296911 -0.0241754 0.0233815 -0.0117328 -0.00375257 -0.0256497 -0.00248007 0.0382605 -0.0167901 0.0369466 -0.0251184 -0.0111061 -0.026154 0.0284858 0.0305429 -0.00482057 -0.026263 0.0181773 -0.00542615 -0.00109687 0.020402 -0.0248877 -0.0293631 0.0101673 0.0140138 -0.0155302 0.00692097 -0.00209767 0.0310935 0.0293215 -0.0146323 -0.033876 0.0279878 -0.0180615 -0.00388613 -0.0244433 0.0285626 0.0173635 -0.0368066 -0.00763612
팡	0.0349348 0.00837196 0.00265983 0.0108528 0.0253821 -0.0118137 0.0263945 -0.0124486 -0.0156697 0.00694553 -0.0327303 0.00790266 -0.0303693 0.0142752 0.00766515 0.00747853 0.00210671 0.0193187 -0.0290245 -0.0236555 -0.00190762 0.0216174 0.0264546 0.00337577 0.0296106 0.0117624 0.0382452 -0.0272296 -0.0121214 0.0302575 0.0345049 -0.00635734 -0.0184914 0.0033435 -0.0248189 0.0189924 -0.0173892 -0.010088 -0.0113696 -0.0313125 0.0184796 -0.0161539 -0.00444853 0.0150171 0.0112724 0.0222898 -0.00800915 -0.027022 -0.0290894 -0.0224893 0.0315888 -0.00851307 0.00187369 0.00304722 0.00709741 0.0108928 0.000535887 0.0196798 -0.0153707 -0.001118
랍	-0.0285409 -0.0339412 0.0306784 0.0108561 0.00109034 0.00261259 0.00386085 0.00797976 0.0365756 0.00624161 -0.0381679 -0.0103706 0.0244026 0.0384926 -0.011665 0.00199794 -0.000141405 0.0171817 -0.0387032 0.0338584 -0.00687643 0.0162019 -0.0387314 -0.00410444 -0.0221062 0.00171769 -0.025145 -0.00566136 -0.0237835 -0.0266518 -0.0377192 -0.00164603 -0.00987229 -0.00931969 -0.0196295 0.0317654 0.00836333 1.16155e-05 0.00462814 0.0170222 0.0140987 -0.0259305 -0.00898621 0.0182956 0.0141068 0.0192999 0.0205115 -0.0107287 -0.0276861 -0.0212616 -0.0345451 0.00282676 -0.0374959 0.0335935 0.0134528 -0.00740405 0.0227335 -0.00545942 -0.0190794 0.0381469
탑	0.021028 -0.0353069 -0.0213732 -0.0205941 0.0222632 0.0382833 -0.0195122 -0.0298543 0.011965 -0.0115588 0.0382471 0.0216543 0.00835538 -0.00398863 0.00527956 0.013885 -0.0243993 -0.0170208 0.0350565 0.0373657 0.015467 0.033419 -0.0311173 -0.00752586 0.0305364 -0.0307446 0.0175883 0.0198944 -0.0126889 0.0342631 -0.0297862 -0.0286872 0.016796 0.0309873 0.00807337 0.0138878 -0.024457 -0.0231953 0.0218007 -0.0352947 0.00285976 0.00456087 -0.0257568 0.0121395 0.00808431 -0.0175801 0.00122611 -0.0217641 0.00701899 -0.0317778 -0.0207613 -0.0363402 0.00553991 0.00861534 0.0232789 0.00680486 -0.0148877 0.0375453 -0.00154069 -0.037022
포	-0.0205883 0.00542733 0.0113567 0.0379313 0.0283228 0.000860896 0.00148531 -0.0168482 -0.0295619 0.0212981 0.0266909 0.0306306 0.0150997 -0.00474901 0.032669 -0.0344813 -0.00666951 -0.0309059 0.0157009 -0.0372293 0.0170413 0.00643293 -0.0256698 -0.0156937 -0.0243685 -0.00949156 0.0120303 -0.0200182 0.0113785 0.015724 0.00100657 0.00484589 0.01604 0.0309066 -0.0228886 0.0175493 -0.0138563 -0.000731599 0.0222619 0.0121436 -0.0383839 0.0333963 0.0103068 -0.0181259 0.00232216 0.0229634 0.0156673 -0.0164394 0.0217454 -0.00326591 -0.0369785 -0.00779977 -0.015367 -0.0236866 0.0287252 -0.0162968 0.0116157 0.0173537 0.0299006 -0.0135916
햿	0.0272968 -0.00152566 0.00697548 0.00458579 -0.0184961 -0.0121298 -0.00782958 -0.0332364 0.0209386 -0.00339875 -0.0164841 -0.00389861 0.00412996 -0.0116749 0.0211874 0.0147666 -0.023086 0.0214675 -0.00970512 -0.0366292 0.0063596 -0.00803969 -0.0355096 -0.0175569 -0.00403951 0.00694258 0.0359458 -0.023246 -0.0189969 -0.00473406 -0.00506508 0.0149539 0.0355917 0.0294242 0.0300491 -0.0383559 0.033994 -0.0231172 0.0297563 -0.00747381 0.0172803 0.00249914 -0.0369012 -0.0186561 -0.0230689 -0.0325875 0.0371455 -0.0296315 -0.0214193 -0.00360365 0.0065119 0.035298 0.0329804 -0.00890342 0.036026 -0.0165903 -0.0107869 -0.0308186 -0.0331906 0.0253566
옽	0.0248297 0.0248678 -0.0284155 -0.0243588 -0.0262381 0.0137123 -0.0195886 0.0118844 -0.00266346 -0.0154773 0.0115934 0.0250075 -0.0223708 0.03098 0.0048551 0.0384098 -0.0275474 -0.011249 0.00635795 -0.00627809 -0.0331805 -0.00186533 -0.0273499 0.0322651 -0.00354579 -0.0130318 0.0305189 -0.00811343 0.0238392 -0.0337851 0.0139889 0.0106122 0.000425208 -0.019844 0.0318435 0.0372964 -0.000897508 -0.0156013 -0.00741436 0.00451377 -0.0181044 -0.0184909 0.0386452 -0.0341308 -0.0339285 -0.0219269 -0.0167198 0.00188315 -0.023604 0.00729584 0.0260762 0.0259984 -0.0380952 0.0148784 0.0228716 -0.00840974 0.0284211 0.0208629 -0.00033075 -0.0205002
쉼	0.0361812 -0.0250089 0.0364461 0.0321276 0.00248683 -0.012087 0.0369357 0.0314736 -0.0307095 -0.0211601 0.00785625 0.0226513 0.00685368 -0.0375163 0.0110492 -0.00571896 0.007461 0.0168801 -0.0306012 0.0326422 -0.0307884 -0.0367004 0.0048095 -0.034867 0.0191384 0.0324446 0.0296561 0.00889796 -0.000818241 -0.0296811 -0.0376255 -0.00943159 0.0266687 -0.0241231 -0.0275764 -0.0147873 -0.0110632 -0.0185112 0.0310098 0.0110166 -0.0112999 -0.0162171 0.0088837 0.035604 0.000638857 -0.0146918 -0.00448893 0.0276997 -0.0288206 -0.0197164 0.0204834 0.0242942 0.0253278 -0.00725139 0.0077015 -0.0243101 0.015394 0.00207375 -0.0361382 -0.00659369
탁	0.00239994 -0.0374658 -0.0304321 -0.0356849 0.0240475 -0.0307274 -0.00915842 -0.0131361 0.00415997 -0.020062 -0.0108995 -0.0169585 0.010358 -0.00188747 0.0351554 0.0366159 0.0143187 -0.0169499 -0.0270153 -0.0307218 -0.00216588 0.0293975 0.0180741 0.00404772 0.018566 0.0336091 0.0261433 -0.0214283 -0.0188487 0.0357278 -0.0137645 -0.00493285 -0.0234764 -0.0206233 0.00934686 0.0316806 0.0296844 0.00160481 -0.0196758 0.00824729 0.0272698 -0.0379289 -0.012547 0.0261262 0.013593 -0.0089573 -0.00785634 0.0243292 -0.0363971 -0.0223342 -0.0253439 0.0331441 0.0238371 0.0330191 -0.0368765 0.00739334 -0.0382048 0.000880364 -0.0204341 0.00388901
셎	-0.02485 0.0380777 0.0151165 -0.0202535 -0.0381897 0.016784 -0.00256803 -0.0344445 0.0167129 -0.0185568 0.000492591 0.0232887 0.0191655 0.0115902 0.0342356 0.00841075 0.0315689 0.000106379 0.0241386 0.0174732 0.0158798 0.0016448 -0.00721535 0.0246094 0.0315878 -0.0283883 0.000852384 -0.0312847 -0.00644887 0.017452 -0.0238561 0.0134712 0.0271633 0.000929546 0.0213083 0.0192196 0.0205965 0.0202018 -0.0163985 -0.0377631 -0.0329142 0.00962221 -0.00705601 0.00622004 0.018254 0.0150187 -0.0120215 0.0284791 0.0213355 -0.0108336 -0.0353307 0.0295947 -0.0167256 0.012501 -0.03281 0.0377703 -0.028695 0.00229462 0.0211138 -0.0380679
괂	0.033111 -0.00571702 -0.0281706 0.0174186 0.0239454 0.0245149 0.0336136 -0.0256047 -0.0168492 0.0234526 0.0314203 -0.0302989 0.0354727 -0.00554507 0.0108407 0.00996776 0.0281759 -0.0383624 -0.00169861 0.00754796 -0.00108544 0.0325273 0.0227859 0.031056 0.0385376 -0.0238992 0.0140306 0.0146442 -0.0310289 -0.0345134 0.0387338 0.0369373 0.0354948 -0.00862231 -0.0361897 0.0210238 -0.0270132 0.00167353 -0.0344988 0.0381385 0.0249388 0.0211931 -0.00723194 -0.00676372 -0.0180855 -0.0355724 0.0309676 -0.0337201 -0.0340901 -0.001524 0.0159718 -0.0383555 -0.0331426 0.0242837 0.0228388 0.00887086 -0.0148085 0.0294965 -0.00725644 -0.00751511
냄	-0.0173718 -0.0122286 0.0375713 0.000487197 -0.0249563 -0.0202601 0.00248287 -0.0110342 -0.0327013 0.0100923 0.0193344 0.016254 0.000745405 -0.00286565 -0.0234559 -0.0272908 -0.00867519 0.0196188 -0.0342119 -0.0354064 0.00756801 -0.037107 -0.0136576 -0.0158886 -0.0357349 0.0360812 0.0145299 0.00302359 -0.0183228 0.0364598 -0.0150621 -0.037753 -0.032403 -0.0233564 -0.0159516 -0.0377554 -0.0180004 0.0210079 0.00740095 -0.00714774 0.00979077 0.0285079 0.0244474 0.033859 0.0334137 0.0161375 0.0201961 0.0176079 0.0198301 -0.0292614 0.0218112 0.00693235 -0.0308863 -0.00623614 -0.00294473 0.0309284 -0.00919927 -0.00293582 -0.0228628 0.0191919
밫	0.0327031 -0.0014864 -0.0235633 -0.000514541 -0.00464363 -0.00516003 -0.00835295 0.00555096 -0.00469808 -0.0121553 -0.0162281 0.0261207 -0.0372523 -0.034497 -0.00937252 -0.00742107 0.0199498 -0.0193014 -0.00164622 -0.0284141 -0.0364713 -0.0232727 0.0201787 0.037658 -0.0166258 0.00457745 0.00694338 0.0100802 0.0386645 -0.0302497 0.00381532 0.00746188 0.0186008 0.0324195 -0.0151489 -0.00383133 -0.0035397 -0.0298753 -0.0107663 -0.0287763 0.0159932 -0.00325366 0.0179353 -0.00440973 -0.0253516 0.0185534 0.025272 -0.010164 0.0276661 -0.016622 -0.0324208 0.0177996 0.00970991 0.0107476 -0.0241634 -0.0245115 0.0092284 -0.00614502 0.0264725 0.0258984
퇑	0.0244532 -0.007683 0.0169771 0.0246014 0.00179291 -0.0203682 0.00200329 -0.0342817 0.0285062 -0.0230607 -0.036818 -0.0247228 0.00102431 0.00876692 0.0354742 0.0377715 0.0156947 -0.0151088 0.0378246 -0.0282203 -0.00738224 0.0194719 0.0345072 -0.0319088 0.0337412 0.02514 0.00674379 -0.0247664 0.0351353 -0.0190365 -0.00279671 -0.000631113 0.00185605 0.0285568 0.0376642 0.00348598 0.00751628 0.0244699 0.0153462 0.0105409 -0.0239475 -0.0150583 0.00286075 -0.0279711 0.0173104 -0.0272957 0.00768615 0.0169154 -0.0208073 -0.0355217 0.00029337 0.0140228 -0.0246199 -0.00394313 0.014363 -0.031481 -0.00127828 -0.0163503 0.0205599 0.0223497
옂	-0.0201359 -0.0196286 -0.0233653 -0.02019 0.00308587 -0.0202143 0.0208631 -0.00888999 0.0244047 -0.0154608 -0.0193497 0.00300737 0.0130528 -0.0178345 -0.0372688 -0.0216255 0.019648 0.0306545 -0.034641 -0.0309604 -0.0124785 0.0152165 -0.00797928 -0.0116445 -0.0225648 0.00837453 -0.0383352 -0.024266 0.0304735 -0.0335537 -0.00442007 -0.0207269 -0.0262474 0.00944926 -0.0120466 -0.0242757 0.0194879 0.0256474 0.0295212 0.0364152 0.000630189 -0.035088 -0.00830409 0.0252995 -0.0296557 0.00639955 -0.00365772 -0.0194089 -0.0215188 0.0386216 0.0194504 0.0369355 -0.0264919 -0.01545 0.0346792 -0.000796128 -0.0299282 -0.0222764 -0.0136498 0.0175004
쿳	0.0135913 -0.0191392 -0.0211892 0.0193502 0.0159176 -0.013889 0.0198783 -0.0311105 -0.0160677 -0.0357955 0.0286943 0.0271077 -0.026524 0.0120226 -0.00768381 -0.00526343 -0.00364905 -0.0141413 -0.00701075 -0.0240033 0.038631 0.0117891 -0.0243031 -0.0276183 -0.00247899 0.0276724 -0.0248028 0.0295916 -0.0162764 0.0129234 0.0172911 -0.00783087 0.0352794 -0.0369096 0.00168458 0.00470148 0.0322876 0.0241746 -0.0113667 -0.0262341 -0.0360074 0.00899358 -0.0182728 -0.0133224 -0.0146297 -0.0325704 0.0264234 -0.0328508 0.00744324 0.00670393 0.0343599 0.0178841 0.0132924 -0.0107153 0.0348054 -0.0287343 0.0170145 0.0154324 -0.012134 0.0225543
쭤	0.0058427 0.0360687 -0.0303511 -0.0252748 0.00736271 0.015881 -0.0369908 -0.0255617 0.0260396 0.00768293 0.00929719 -0.032796 -0.0245786 0.0166574 -0.0165146 0.0125692 -0.0176855 -0.00622105 0.0155971 0.0124304 0.0117048 0.0189026 0.0325662 0.0277111 -0.00707491 -0.0036068 0.00473152 -0.0321056 -0.0148433 0.00312756 -0.0301944 -0.0219514 -0.0221967 -0.0194062 0.0371443 -0.0354542 0.00494415 0.0222181 -0.0356983 0.0221286 0.0372471 -0.0107825 -0.0226846 -0.00126956 0.0298314 -0.0335175 0.0021161 0.0216079 -0.0139244 0.0233399 0.0280098 0.00386868 -0.0374506 -0.00923916 0.00414722 0.0333324 0.00708557 -0.0207006 -0.0238145 -0.0215381
혾	-0.0280901 -0.0108696 0.0235443 -0.0034578 0.0248844 -0.0160249 -0.0371636 0.0149261 0.016764 -0.0244168 0.0386591 -0.0150308 -0.0326652 -0.0355907 -0.0307324 0.00677538 0.0222036 -0.0311287 -0.0212555 0.0164427 0.00921061 0.017536 0.000275951 0.00841882 0.00364966 -0.0236316 0.015533 -0.0278897 0.0310296 0.032646 -0.011874 -0.0025362 -0.026788 -0.000136025 -0.0336636 0.00925543 0.0190173 -0.018319 0.0363331 -0.000765584 -0.0128436 -0.019569 -0.0116664 -0.0190497 -0.0383579 0.0354068 0.0209429 -0.0231512 0.0273382 0.0170846 -0.0224256 0.0229532 -0.00908608 -0.0272616 0.0253319 0.0341478 0.00249737 0.0326209 0.0295178 -0.00970518
뻔	0.0222187 -0.0186126 0.0319209 -0.00217698 0.0277717 -0.026361 0.0107271 -0.019901 -0.00297927 -0.0143208 -0.0353683 -0.0331121 -0.030665 0.0087061 -0.0334695 0.0171925 0.00982823 -0.032248 -0.0218475 0.00266095 -0.00826024 0.0300223 0.0325553 -0.0266673 0.0148722 0.00735981 -0.000352684 -0.0334617 0.0201748 -0.0197797 0.0261848 -0.0333556 -0.00834671 0.00751768 -0.0117639 0.0026905 -0.0290267 -0.0158972 0.0271197 0.00230293 0.00217637 0.0170807 0.0159997 -0.00725912 -0.0136886 0.0208096 0.0157247 0.0211105 0.000208993 -0.0354375 -0.0350149 0.0231878 0.0124252 -0.0302996 -0.0191505 -0.0282044 -0.00845335 -0.00455874 -0.00185201 0.0242411
샇	-0.0145004 0.031532 0.00872279 -0.0332475 -0.0053741 -0.034139 -0.00642294 -0.0297615 -0.0185932 -0.0048901 -0.0376506 -0.0310735 -0.00164023 0.0199462 0.000655886 0.0239828 -0.0154682 0.00510445 0.0279839 -0.00167251 0.0177142 -0.0193692 -0.0139237 0.0283391 -0.0267048 0.0283415 0.00671175 -0.0247866 -0.0141781 -0.00699607 0.0229221 0.0354282 0.0342241 -0.0047108 -0.00931436 -0.0330523 0.0188441 -0.0330771 -0.0272086 3.42466e-05 -0.0154004 -0.0180674 -0.0242765 -0.032593 -0.0291829 0.00104178 0.0205232 0.0350021 -0.0250533 -0.034168 -0.0184114 -0.00510085 -0.0313871 0.0110774 -0.0178958 -0.00574974 -0.00667977 0.00019563 -0.0314033 0.0311729
퇘	-0.00228475 -0.022078 9.31323e-08 0.016225 -0.0306578 0.0214368 -0.000265859 -0.0116463 0.00750108 0.0243944 0.0203688 -0.00348943 0.0261456 -0.0190483 -0.0383707 -0.0337032 -0.0275716 -0.0372858 -0.0125651 0.0275337 -0.00613429 0.00433655 0.0181136 -0.00377097 -0.029558 0.0158935 -0.0191121 0.0212958 -0.0317964 0.0295245 -0.0359443 -0.0349098 0.0293547 0.0216126 -0.0267444 -0.0096016 -6.32182e-05 0.00885467 -0.0247679 0.00244595 0.0365173 -0.0132877 -0.00280559 -0.0145774 0.0301836 0.00629393 -0.0370916 0.0344789 0.0268465 0.00417917 -0.0336705 -0.0344249 -0.0375043 -0.0029939 0.0276468 -0.0147117 -0.00398291 -0.00184328 0.025416 0.00582277
륄	-0.0214467 -0.0259031 0.0111987 -0.0129011 0.0165727 -0.0325616 0.0137735 0.0144979 0.015866 0.0245936 0.00390745 -0.0211391 -0.0228524 0.00139894 -0.0261439 0.0234469 0.0306663 -0.0177401 0.0252634 0.000563305 -0.00162943 -0.0294909 0.0183507 -0.0153334 -0.0346969 -0.0141802 -0.0256106 -0.00415631 -0.0236953 0.0134377 -0.0233983 -0.00346553 0.0289585 0.0171612 0.0386035 -0.000791859 -0.0359866 0.0258531 0.0166224 -0.0302904 -0.0210092 0.00364847 -0.00130164 -0.00780035 0.0361123 0.0176798 0.0177096 -0.0346321 0.0152395 -0.0252309 0.015473 0.0349205 0.0027272 0.0074666 -0.0187225 0.0163161 -0.0303835 0.0252643 0.0234172 -0.0353583
영	-0.0126742 -0.00263402 -0.0357017 0.0145863 -0.0345434 -0.0240946 0.016925 -0.0335035 0.0364055 -0.0148429 0.00434068 0.0116699 -0.0064693 -0.0327596 0.010492 -0.00218709 0.0226115 0.0147887 -0.00787384 0.00304128 -0.0345739 -0.010162 0.00594549 -0.00269386 -0.0220621 0.0151736 0.00628573 0.0211108 0.0108554 0.0107773 -0.0360725 -0.0153902 0.012558 0.0163438 0.0150518 -0.0131182 -0.026771 0.00234427 0.0183157 0.0152608 -0.0207514 0.00331375 0.0238415 -0.00797528 -0.024908 0.0154767 -0.0356078 0.0250676 0.0181656 -0.00566267 -0.00496089 -0.00601775 0.00373298 -0.0296386 0.027984 0.00397404 0.0118543 0.0237523 -0.0215924 0.0236456
갶	0.0328134 -0.0253124 0.0292455 -0.0154113 0.0136094 0.0240743 0.00873489 0.00663733 0.0299056 0.00932831 -0.00689456 0.00941627 0.0176942 0.00693537 -0.0196576 -0.0288071 -0.00351927 0.0177962 -0.0215769 0.00441682 0.0107656 0.0303455 0.00232343 -0.0352456 -0.00612733 -0.016653 0.0183622 0.00780479 -0.000715584 0.0159917 -0.0386193 -0.0349262 0.031001 -0.0230859 -0.0263788 0.0362095 0.00580209 0.00718008 0.033204 -0.0217126 -0.0363122 0.0287823 0.0268651 0.0351201 -0.0367859 0.0107874 0.0220224 -0.0373514 0.0309146 -0.0162188 -0.019738 -0.0100393 -0.0273405 0.00674882 -0.00771183 0.022899 -0.0315891 0.0327866 -0.0377076 0.0349487
잇	-0.0288273 -0.0373466 0.0111486 8.348e-05 -0.0200679 -0.00959805 0.0375845 0.0210829 0.0226916 0.0146326 -0.0310105 0.0369401 0.0372563 -0.0176988 0.0369647 0.00330458 -0.00718241 0.00981469 0.012496 -0.0233544 -0.00494597 -0.00144998 -0.0124818 -0.0385919 -0.0203885 0.0100403 -0.0343159 -0.0186596 -0.000938121 -0.021654 0.0369248 -0.00336465 -0.0324237 -0.0175842 -0.0301885 -0.0227909 0.0373668 -0.0379275 0.0211586 -0.0142765 -0.00594127 -0.0093617 -0.0221663 0.0366674 -0.0227339 0.0226825 0.0186114 -0.0201158 0.0201734 0.0299563 -0.00932351 -0.0296952 -0.00226904 0.0375771 -0.00308155 0.0320887 0.015732 -0.0373034 0.0254134 0.0200785
툘	0.0026534 -0.034099 0.0137292 -0.0114956 -0.0135435 -0.0261845 0.0189366 0.0241098 0.000295855 -0.0339155 -0.0380939 0.0261567 0.0353085 -0.00659529 0.0355715 0.0283596 -0.0148902 -0.0177607 0.00640157 -0.0244809 0.0161162 0.0158067 0.0331527 -0.0241508 0.0154026 -0.00159573 0.00977512 0.012396 0.0273409 0.0221744 -0.0317533 -0.0152105 -0.00374931 0.0208342 -0.0174802 0.00460305 -0.0374825 -0.00891453 0.0140019 -0.0168995 0.00313658 -0.0264722 -0.030196 0.0384817 -0.0254059 -0.0376694 0.0146384 0.0178895 0.0129737 -0.0255083 0.0369011 0.0237057 -0.0187536 0.0176399 -0.0355848 -0.027961 -0.0218155 -0.0217056 -0.0223661 -0.0138758
숀	0.0116608 0.00308102 -0.0238947 0.0221799 -0.0274563 0.00322555 -0.00541337 -0.01111 -0.00478571 -0.0206539 0.00640868 -0.0177192 -0.0259012 -0.00253822 0.00409551 -0.009948 -0.00849827 0.0156526 0.0225532 0.0364453 0.0102735 -0.0221982 -0.019041 -0.00367923 0.0377507 -0.0155762 0.0151947 0.0153195 0.00397944 0.002803 0.0234443 0.00336397 0.00915122 0.0292178 -0.0296098 -0.0366051 0.0380481 -0.0155978 0.0263483 0.0249657 0.0079019 0.0205827 -0.0338302 -0.0312563 -0.00106467 -0.00961391 0.0265596 -0.00798174 -0.027417 -0.0324358 -0.0120781 0.0143279 0.00609948 -0.00162878 -0.0362469 0.0347902 0.0183915 -0.0237212 0.0165058 0.0319191
늠	-0.00614587 0.0264462 -0.032242 -0.0158264 -0.0324355 -0.0226464 -0.0161998 0.0370384 -0.0300343 0.0165307 0.0337123 -0.0103487 -0.0382453 -0.0327804 0.00269749 0.0193632 0.00293485 0.000303209 -0.0130664 -0.0173751 -0.0362292 -0.0382484 0.0124053 0.0307075 -0.0287272 0.00879624 0.0374212 0.0307497 -0.0204417 0.00644166 -0.0188968 0.0344727 -0.0151283 -0.0118312 0.0340551 0.0237943 0.0180376 -0.0160346 -0.0379964 0.0243712 -0.0039059 0.000324428 0.0158487 0.0182548 0.0148732 -0.0278512 0.025936 -0.0115707 -0.0288517 -0.0368863 -0.0317176 0.0264927 0.00725954 -0.0280493 -0.00105638 0.0368402 -0.0319433 0.00737993 0.0155054 -0.0193564
팅	0.0282496 -0.0304465 0.00496714 0.0204712 0.0320931 0.023581 0.0276583 0.00853071 0.0186121 -0.0294993 -0.00605465 0.0183332 0.00342919 0.0279433 0.0360461 -0.0176569 -0.00194504 0.00891902 0.000741798 0.00894571 0.00831228 -0.0106881 -0.0367751 -0.0105216 0.0353411 0.00741433 -0.0120448 0.00565185 -0.0202295 0.00331579 -0.00748834 -0.00386778 -0.00935454 0.00151119 0.0067591 -0.0192413 0.0243594 -0.016933 0.0116644 0.0308468 0.018824 -0.0258562 -0.0193724 -0.00147419 -0.0148505 0.000746466 -0.0130916 0.0318434 -0.0319618 -0.0193925 -0.00919285 -0.0201613 -0.0081671 -0.0289748 -0.0148935 -0.00845901 0.0115375 0.00766023 0.033214 -0.0356253
쿰	-0.00521501 0.0256005 -0.00452147 -0.0325972 -0.0371484 -2.59019e-05 -0.00553259 0.0331514 -0.0139771 -0.0340685 -0.0380239 0.0143422 -0.0108774 0.0099343 0.0171454 -0.00244532 0.0379574 0.0188214 0.0306504 -0.00998273 -0.00606213 0.0369366 0.0364136 -0.0145282 0.0282732 0.0123185 0.0116733 -0.0333166 -0.0384915 0.0220244 -0.0258708 0.0184022 -0.0174096 -0.0120535 0.0276922 0.00991698 -0.0098908 0.0356628 -0.0357076 0.0117324 0.0326081 -0.0257706 -0.0233969 -0.0143323 0.00929736 -0.0140677 -0.038364 -0.00910161 -0.00898171 -0.0289265 -0.0135823 0.0216979 -0.024489 -0.015621 0.0100825 0.0104807 0.00399096 0.0270028 -0.0267153 -0.0210801
뤈	0.021536 0.0124537 -0.012521 0.00650797 0.00747339 -0.0185341 0.0264069 0.019855 -0.0293537 0.0160453 -0.0102488 -0.0196188 -0.0216537 -0.0319676 0.0323904 -0.0167076 -0.012429 0.0204494 0.00445751 -0.032986 -0.0275068 0.022872 0.00721982 0.0251655 0.0175292 -0.00628972 0.0344275 -0.0139299 0.0366596 -0.0230539 -0.0296785 0.0167762 0.0250389 -0.0117457 0.0220489 -0.0331826 0.0232619 -0.0128478 -0.0336596 0.0303795 0.0307432 -0.0379212 -0.00262868 0.0327051 0.0111376 0.0241758 -0.0300144 -0.0355245 0.00626925 0.0127292 -0.0181434 0.0110653 -0.0228402 0.0129847 -0.0306151 -0.00621917 0.0364812 0.0255123 0.0132736 -0.0269266
퍼	-0.0145561 -0.00479969 0.030689 -0.00526198 0.00472298 -0.0072039 0.0204579 0.0183512 -0.0201302 0.024727 -0.0175942 0.000125583 -0.0303081 0.00842562 -0.0289245 -0.00440369 0.0385202 -0.00470997 0.012267 0.000424579 0.0276797 0.0253193 -0.00483182 -0.0264566 0.0352873 0.00840056 -0.0161004 -0.0219121 -0.00189417 -0.0149981 0.0158029 -0.0273024 0.0318361 -0.0265464 0.035493 -0.0243169 0.035697 -0.0020191 -0.0229929 -0.0142256 0.00697904 -0.0129604 0.0241821 -0.0202809 0.00985106 -0.0369834 0.00306447 0.00435036 -0.0322779 0.0195392 0.0360504 0.0353991 0.038627 0.0223549 0.00181247 0.00145151 -0.0243769 -8.56705e-05 -0.0121184 0.036656
만	0.0247419 -0.0122106 -0.0292213 -0.0110463 -0.0355154 -0.0013636 -0.0364602 -0.0381084 -0.0107865 -0.0338941 0.0060832 -0.011834 -0.0160752 0.0043932 0.00358238 0.0298235 0.0268133 -0.0214691 0.0181073 0.0357437 0.0247835 -0.0186416 -0.0183267 -0.0268307 0.00513533 -0.0079984 -0.000184853 -0.0136683 -0.0288069 0.0147207 0.0151586 0.0385485 -0.0150549 0.0197347 -0.00665699 0.0128786 -0.0233403 -0.00585095 0.0129903 -0.00736154 -0.00624933 -0.0112578 -0.00517082 -0.00644228 -0.00642883 -0.0289476 -0.00852554 0.0100475 0.0291116 0.0350314 -0.0364157 -0.0243789 -0.0103163 -0.0094658 0.0165169 -0.00381851 0.00868973 -0.011491 0.0144883 0.021067
탕	0.013035 0.0289527 0.000434913 -0.0184011 0.00280754 -0.0157374 -0.0306342 -0.00118118 0.019702 -0.000415109 0.0315798 0.0232439 -0.0159912 0.011438 0.00918082 -0.00980576 0.00602243 -0.0062766 0.0309853 -0.0207453 0.0207612 0.0241865 -0.0153548 0.00339539 0.0278271 0.0237183 0.0185615 0.0275965 0.0069188 -0.000952657 -0.0154674 -0.0206256 -0.0133435 -0.00967786 0.0343885 0.00481463 0.0246953 0.0214853 -0.0295474 0.0384671 -0.00709164 0.0336266 0.00167928 -0.0162452 -0.0281715 -0.0262676 0.011265 0.0325474 -0.0205187 -0.0344035 0.0167431 0.0102094 0.0371398 0.00847301 0.000251018 -0.00699972 0.0211205 0.0153399 -0.0153289 -0.022071
떻	-0.0037894 0.0328419 0.0357395 0.0128919 -0.0138628 -0.0238003 0.00482628 -0.00832371 0.0159974 -0.0223892 0.00361256 -0.0160595 -0.036143 0.00607504 -0.0371339 0.00108823 -0.0308662 -0.0279 -0.0367901 0.0124608 -0.0163714 -0.00457615 0.0129458 0.0207204 -0.035607 -0.0220795 0.0275657 0.0160362 -0.025397 0.011325 -0.00355508 0.0177762 0.0156536 -0.0185784 -0.00662687 0.0300147 -0.0187519 -0.0194353 -0.0219391 0.0194882 -0.0314581 0.0352221 0.0195154 -0.0311863 0.0323377 0.0135849 -0.0370193 -0.0302554 0.0207093 0.0300976 -0.0191454 0.0217214 -0.0289653 -0.0278396 0.00392928 -0.0339779 -0.00374729 0.0347462 -0.0241216 -0.0220117
멧	-0.00277111 -0.0344872 0.0149763 0.012542 -0.0377021 0.00729478 0.0225512 0.0239449 0.0067735 -0.00549507 0.0170787 -0.0234684 -0.0376434 0.0164616 0.0332651 -0.0292796 -0.0164911 0.0322106 -0.0351986 0.0206245 0.0271345 -0.006183 0.0329987 -0.0254845 -0.0385603 -0.0138566 -0.00898962 -0.0130823 -0.026798 0.0129946 -0.0209118 0.000531949 -0.0146819 0.0218451 0.0353829 0.0123035 0.0310371 0.00147476 0.0284599 0.0199182 0.0130935 -0.026364 -0.0227927 0.0104462 -0.0180677 0.00512344 0.0181999 0.00373537 0.0129969 -0.0279082 -0.0325532 -0.0335377 -0.0238901 -0.019162 -0.0299615 -0.0150198 -0.0347378 0.00433929 0.0271552 -0.018253
낟	-0.0192293 -0.0123536 0.0101246 0.037197 0.00376501 0.00523011 0.00303663 -0.00996763 -0.0125618 -0.030168 -0.00544901 -0.0367146 0.029756 0.034577 0.00652135 0.00998639 0.0246701 -0.0205723 0.0283431 -0.0373456 -0.0121101 -0.0385747 0.0262082 -0.035893 0.0296152 -0.0340281 0.0319973 -0.01766 -0.0344722 0.00540879 0.0348098 -0.0152632 -0.0181008 0.0193188 -0.0325509 0.0282721 -0.0165291 0.0124752 -0.0226111 -0.0219512 0.0109256 -0.0130112 0.000428453 -0.0253951 -0.013322 0.00326668 0.0233104 0.0230412 0.018062 -0.000528827 -0.016818 -0.0146814 -0.000678528 -0.00807051 -0.00188723 0.000481557 0.0197303 0.0349832 0.00141826 -0.0200086
팹	0.000620965 0.00776554 0.0186913 -0.0197435 0.00319465 0.017741 -0.00395669 -0.0240828 0.0020515 -0.0251234 -0.00512327 0.0205309 0.0111024 -0.0176619 0.00385403 0.0170952 0.0199811 0.0371791 0.0236632 0.0190056 0.0159445 -0.0340394 -0.0122817 0.00672231 0.0336463 0.0331931 -0.0253207 -0.0123886 -0.0130098 -0.00172534 0.00775655 0.00876849 0.00370258 0.0193394 -0.0257719 -0.0240295 -0.0155594 0.0149504 -0.0279541 0.0343988 0.00722748 0.00247693 -0.0164643 -0.00681511 0.0250616 -0.018962 0.00741975 0.0322675 0.0183447 0.0356597 0.0108859 0.0225984 0.00840034 -0.0348862 -0.00231584 -0.0282309 -0.0202322 0.032102 0.00847593 0.0187823
긓	-0.0256212 0.0382891 -0.0384762 -0.0124956 -0.0197432 -0.0230098 0.00630375 0.0358803 0.00318929 -0.00236579 0.0188735 0.00550295 -0.0315524 0.0114592 0.00175964 -0.0310876 0.0192405 0.0307049 -0.0368928 0.0121824 -0.0334576 0.0358375 -0.0144147 0.0266837 0.00526344 -0.00523566 -0.00238932 -0.0317592 -0.0227793 0.0298062 0.00624545 -0.035072 -0.0367729 -0.0299242 0.0240336 0.00115502 0.0124384 0.0328459 0.010191 0.00243076 -0.00610068 0.0289408 -0.0188978 -0.021904 -0.00140269 -0.00586283 -0.0219415 0.0267064 0.00844564 0.0226088 0.00724299 -0.021081 -0.0361133 -0.0133338 -0.0266542 -0.0124155 -0.0372271 0.0380301 -0.032333 -0.0209478
뷸	-0.0339113 0.01684 -0.0306021 0.00916888 -0.00473918 0.0274146 -0.00504462 0.0359294 0.0354356 -0.00899423 0.000851378 0.0366458 -0.00452358 0.0380923 0.0370392 -0.01758 -0.0256239 0.0137364 -0.0103772 0.0227708 0.000354636 0.0346745 0.00586176 0.0362419 -0.0353435 -0.0311909 -0.00753399 -0.000464536 -0.0364663 0.0277312 0.0224298 -0.0341582 0.00566782 -0.0317143 0.0197024 -0.0382452 0.0286277 0.0354626 0.0175285 0.025808 0.0328736 -0.00306612 0.0368395 0.0282212 -0.000616707 -0.0297151 0.0212036 -0.0289824 -0.0231996 0.0385647 0.0274056 -0.00906373 -0.00676503 0.00558656 0.0266386 0.0193736 -0.0214412 0.0148584 0.0369714 0.0332372
른	-0.0346073 0.00948245 0.000677705 0.0169042 -0.00591036 0.0322634 -0.0228589 0.000821318 -0.00697388 -0.0226369 0.0385208 0.0288425 -0.028876 -0.00115855 0.0101417 -0.00849968 -0.0261173 -0.00715048 0.0361125 0.00895422 0.0166972 0.0153821 0.0208383 -0.0107284 -0.00923306 -0.0272484 -0.00910312 0.00601768 0.0268974 0.000509329 -0.0380637 0.0190205 0.0359881 0.0096018 0.0169402 0.029107 0.00906013 -0.0340967 0.0212251 0.0115945 -0.0103566 -0.00121058 0.0274705 -0.0269638 -0.0373178 -0.000189483 0.0373322 0.0248058 0.0249286 -0.0233733 0.0196203 -0.0238274 0.030515 -0.00285286 0.0206428 0.0144302 -0.0136273 -0.0382549 -0.0307317 0.00972219
몫	-0.0237203 0.0355854 -0.0313219 0.0287631 0.0144517 0.00999358 -0.00515214 0.00694357 -0.00515894 0.0198391 0.0171616 -0.010193 -0.0244817 -0.0131458 -0.00568406 -0.00832913 0.0300079 -0.0233222 -0.0159196 -0.0136918 0.0157618 -0.0246536 -0.0324542 0.00778978 -0.0109165 -0.00928649 0.0121782 -0.0144076 0.0179893 0.00157152 0.00776962 -0.0153983 -0.017112 -0.00216979 0.0082162 -0.0355524 -0.0351612 -0.00217021 0.014205 -0.0249667 0.00816613 0.0265458 0.00588614 0.0369899 0.0172638 -0.00565824 -0.0248306 -2.58461e-05 -0.0119175 -0.00581933 -0.0218537 0.010957 0.0305757 0.00104751 -0.00383888 -0.00795832 0.0359229 0.0150903 -0.00363447 0.0293183
힛	-0.0371996 -0.024796 0.0175316 0.0337305 0.0188055 -0.00595025 -0.00738038 -0.0224658 -0.0191641 0.00828162 -0.010601 0.027524 0.0377213 0.0276274 -0.0329161 0.0273299 0.0107389 0.00710351 -0.0110458 -0.0231594 0.0268552 -0.0249509 0.0135778 0.0140775 0.00858651 -0.00517479 -0.0024437 -0.00684057 0.00411587 -0.0267458 -0.0285162 -0.0169012 -0.00431412 -0.00822116 0.0343022 0.0233406 0.0158579 -0.0262179 0.035784 0.00844163 0.0384884 0.0242733 -0.0138633 -0.0100249 0.01075 0.0313649 0.00211697 -0.0313314 0.0267162 -0.0181483 0.017122 0.0201784 -0.0120694 -0.0345536 0.0145383 4.77396e-05 -0.00912515 -0.00481398 0.0265911 0.0312619
현	0.0122127 0.0274999 -0.0248097 -0.0185489 -0.0299746 -0.0043717 -0.0157777 -0.00624351 -0.0349683 0.00815823 0.0269015 0.0101915 0.0111223 -0.00275651 0.0207254 -0.0232063 -0.0260547 0.00775526 0.0381352 0.0351078 -0.0221871 0.00257648 -0.00932109 -0.0374479 0.000596803 -0.0112693 -0.0351919 0.00786148 -0.0263889 0.00999254 -0.0172153 0.00441336 0.00577237 -0.0107661 0.028333 0.019446 0.00722198 0.018688 -0.0382256 -0.0331745 0.0251432 0.0106848 0.0103489 -0.0374043 -0.0291647 0.00601898 0.00699932 0.0160828 -0.0172973 -0.0145998 -0.0287265 0.0337883 0.00837417 -0.0225742 -0.0355505 0.0144609 0.0321275 0.0311263 0.00596281 0.0120471
춥	0.0255371 -0.0156943 0.00445562 0.0259795 -0.0315574 0.0160068 0.009234 -0.0361763 0.00195977 0.00892343 -0.0168222 0.0197464 0.0308357 -0.0172506 0.0303584 0.00289254 -0.0227992 0.0292743 0.0198101 0.00360565 0.0333477 -0.0325799 -0.0223159 0.0244753 -0.0335807 -0.0110625 -0.00164663 0.0308973 -0.0221711 0.00781147 -0.0240618 0.0103114 -0.0343873 0.0240798 -0.0254265 -0.0277221 -0.0365098 -0.0179916 0.034235 -0.0200433 0.0357349 -0.0134847 -0.00476743 0.0183616 0.0253536 0.00392593 -0.0289532 -0.0133272 -0.0112648 0.0246515 -0.0335232 0.0302249 -0.0310714 0.0329284 -0.00623735 -0.0126125 0.00603545 -0.0173258 0.0141796 0.0382572
꼿	0.0124927 -0.0188348 0.0291326 -0.0318899 0.010406 -0.0178964 -0.00874187 0.00187397 -0.0195631 0.0156874 0.0198394 -0.0151744 -0.0332983 0.0187734 0.0110009 0.00251986 -0.00933427 0.00380825 -0.00697457 -0.0158559 0.00277959 -0.017317 0.0212584 -0.00607178 -0.0326735 -0.00819707 -0.0168193 -0.00801636 -0.0370936 0.0255531 0.00314219 -0.0372504 -0.0236183 0.0169717 -0.0284937 -0.0144816 -0.0250334 -0.0111363 0.0258358 -0.00899224 -0.0355282 0.00854099 -0.0153057 -0.0214879 0.0203898 -0.0289923 -0.0309006 0.0367815 0.00558725 0.034737 -0.00145453 0.0169498 -0.011041 0.00526973 -0.0307808 0.000863612 -0.0312255 -0.00482161 -0.018517 0.0334517
덴	-0.0352956 0.037363 -0.00912992 -0.0335781 -0.0368138 -0.00204133 0.0227544 -0.0250877 -0.00151749 -0.00722498 0.0302423 -0.0281425 0.0152673 0.00777256 -0.00876992 0.00209204 0.0343975 0.0331571 -0.0147901 -0.0102392 0.0276231 -0.0286008 -0.0165962 0.027895 0.0120639 0.030656 0.0383017 -0.0236673 0.0247752 0.0254817 0.0275207 -0.00981766 -0.0181764 0.0102703 0.0166458 -0.0113197 -0.0295616 0.014348 -0.0332134 -0.0215781 0.0166343 -0.00328796 0.00439082 -0.00465793 -0.0116712 -0.018082 -0.0184714 0.0372985 0.0303132 -0.01418 -0.0334303 -0.00990383 0.0153617 0.0248482 -0.0375271 -0.0260749 0.0117786 0.0291279 -0.0246171 0.00717034
뷰	-0.00280101 0.0323049 -6.68392e-05 -0.0370406 -0.0271738 0.00342533 0.0176568 0.0319235 -0.015291 0.0337942 0.0327841 0.0371253 0.0225837 -0.0359553 -0.0140233 -0.0275558 -0.00735645 -0.0224447 -0.024527 0.0331143 -0.00263873 -0.0197022 -0.00871866 0.0260897 -0.00873279 0.00135796 0.0275525 -0.0139574 -0.000456117 0.027155 0.0344322 0.0145393 0.0291962 -0.031741 -0.0275567 0.0254638 0.00932963 0.0126208 0.0234467 0.0333881 0.00116739 0.014467 0.015097 0.00202007 -0.0167622 -0.000545517 0.00288878 -0.012601 -0.0279862 -0.033495 0.0162501 0.0315146 -0.0119077 0.0309553 0.0111305 0.036607 -0.0226496 0.00890782 0.0291442 -0.0261303
탉	0.00204205 0.0223837 0.0339316 -0.0286808 -0.0180027 -0.0338501 0.0223293 -0.031778 -0.033548 0.0120203 0.00784064 -0.0259187 -0.0345696 0.0175381 -0.0020859 -0.0266541 0.0143901 -0.0261419 0.034284 0.00114031 0.0106651 -0.025762 -0.0105457 0.0340704 0.0172355 -0.0309162 -0.0349354 0.0341075 0.026364 0.0139856 -0.015417 0.0331331 0.0127633 0.0148422 -0.0221383 -0.00786484 -0.0023785 0.00602181 0.00732686 -0.0053424 0.0161386 0.0358885 -0.0225688 0.00497698 0.0142562 -0.010661 0.0140109 -0.0311336 -0.0170314 -0.00785572 -0.0284365 -0.0272118 0.0125734 -0.0357686 -0.0320248 0.0160274 -0.00738975 -0.0375404 -0.020576 -0.028926
늬	-0.0268221 0.00833758 0.00275271 -0.00695206 -0.0195655 -0.00830002 0.0062773 0.000644911 0.0175258 0.0020757 -0.00761585 -0.00320373 -0.0181731 0.00995778 -0.0277843 -0.0133275 -0.0330507 -0.00236764 -0.00254238 0.0169405 -0.0291634 -0.0109605 0.0362876 0.031125 0.0258063 0.00204564 -0.0224713 0.0350458 0.01979 0.00457267 0.0177542 -0.0328675 0.0346054 -0.000935387 0.00280673 0.0119489 -0.0348402 -0.00379361 -0.025564 0.0334662 0.0211015 0.0198318 -0.00884758 0.0231214 0.0254304 0.00840123 -0.0149216 0.00496406 0.0279681 -0.00347697 0.0157517 -0.000533085 -0.0224297 -0.0257516 0.037502 -0.0104121 -0.0207715 0.0206822 0.0309137 0.0135742
덛	-0.0232371 -0.019008 -0.0340262 0.00626178 -0.0307738 -0.0227991 -0.00270331 0.0243773 -0.0353443 0.0117586 -0.0161649 -0.0189467 -0.0190087 -0.00831999 -0.0374593 -0.00548436 -0.0195277 0.0346517 -0.0191521 -0.0365468 0.0221394 -0.0278067 0.0141741 -0.0286723 0.0315563 -0.0355355 0.002228 0.0141315 -0.0274855 0.0189765 -0.0290278 0.00783692 0.00676778 -0.0219049 0.029691 0.022452 -0.00974421 -0.0386636 -0.0228185 -0.0260096 -0.0154123 0.00910393 -0.0316455 -0.0267055 0.0118315 0.00405243 0.0253327 0.0195276 0.0121815 -0.00184161 -0.00890249 -0.0168004 -0.0153684 -0.00396511 -0.00701059 -0.0150004 0.0124357 0.00162544 0.0306765 0.00141948
끌	-0.0160162 -0.00461472 0.0386923 -0.02102 0.0180428 -0.036804 -0.0250594 -0.0218135 0.0237513 0.00219361 -0.00959949 -0.00998225 0.0322527 -0.0260295 0.00258607 0.0181191 0.0313378 -0.0204489 0.00485749 0.0245461 -0.030486 -0.0368837 0.0117115 0.00908538 0.0152743 0.010326 0.0188484 0.0294228 -0.00511929 -0.0162726 0.0197299 0.0120115 0.028412 -0.0272172 -0.0163699 -0.00584404 -0.0200893 0.00391781 0.00169319 0.0109798 0.000885662 0.00480841 -0.0130104 -0.0306464 0.037002 -5.5287e-05 0.000700336 0.0380825 0.0111382 -0.0116904 -0.0151128 -0.00256374 -0.0016348 -0.0251224 -0.0340185 0.0376855 -0.0349784 0.00105044 0.0297408 -0.0138148
탬	-0.000135258 -0.0141053 0.0095149 -0.0271713 -0.00896659 -0.011419 0.0143272 -0.0312534 -0.0140731 0.0286677 0.021863 -0.0306544 -0.00600038 -0.00888051 -0.0310911 0.00460628 0.00649741 -0.00138018 0.00766205 0.0327333 0.0293565 -0.02455 -0.0156926 0.0267218 -0.0219795 -0.0334839 0.0306527 -0.00453828 -0.0335704 -0.0193948 0.0276164 0.0347766 0.022215 0.0263275 0.0252664 0.0286031 0.0236664 -0.0303802 -0.00570013 0.0322401 0.0178661 0.0291463 -0.0287589 -0.0203145 -0.00284223 0.00911485 0.0278832 -0.0267364 0.00856552 0.00143525 0.00310656 -0.0180313 0.00402964 0.00933244 0.00111557 -0.0357861 -0.00478097 -0.00060096 0.0156952 0.00575605
왬	-0.0299832 0.0113277 0.025779 -0.00460645 -0.016528 0.00222496 0.00982752 -0.0095834 -0.0191932 -0.0211238 -0.00438119 -0.0263967 -0.0267338 0.00302647 0.0255727 -0.0205013 -0.00221505 0.00274459 0.0267228 -0.0251953 -0.0021928 0.00135325 -0.0314615 0.0127763 0.0378172 -0.0357556 0.0243055 -0.0314358 -0.00310139 -0.00921306 0.0192811 -0.0119517 -0.0343787 -0.00562818 -0.00386295 0.0291449 0.0186699 -0.0299673 -0.0210138 0.0274561 -0.0055804 0.00508713 0.0154949 0.0369375 0.0044394 -0.0109865 0.0155678 0.0202109 0.000217807 -0.00225874 -0.00159645 -0.0264048 0.0339939 -0.0236163 0.00394656 -0.00795186 0.0274738 -0.0110383 0.00326709 -0.00267678
랴	-0.00843198 -0.0294689 0.0358086 -0.0105335 -0.0192061 0.016619 0.0344372 -0.0118079 -0.0243297 0.011609 0.0323254 0.0318779 -0.0302171 0.0315954 -0.00679234 0.0303595 0.0184272 0.00832642 0.0302727 -0.0189186 0.0198918 0.0173504 0.0118847 -0.0336814 0.00552638 -0.0247066 -0.0314621 -0.0160771 0.0385996 0.0360324 0.0102511 0.0211716 -0.0168296 0.0193198 -0.0196535 0.0380984 0.0177272 0.0340187 -0.0202849 0.036535 -0.00200592 0.0107254 -0.0283025 0.0342011 -0.00646193 0.0197318 -0.0227838 0.0224957 -0.00267537 0.0262247 -0.000242747 -0.0262841 0.0235568 -0.0129912 -0.0088333 -0.000952132 0.032016 -0.0348788 0.00482894 -0.0114931
갉	0.00580509 0.0260415 -0.0192408 0.0259926 -0.0292776 0.00557815 -0.00324922 -0.00659705 -0.0240914 0.019422 0.0336064 0.00383298 0.0211673 -0.00750697 -0.0153178 -0.0234405 0.00741611 -0.0271253 -0.0356887 0.0171196 0.0324175 0.0111701 -0.000678729 -0.00409445 0.024124 -0.00349752 -0.0346243 0.0193368 0.0358687 -0.0302541 -0.0125413 -0.00525643 0.0116494 -0.0377907 -0.0357254 -0.0239855 0.0382932 0.0195051 -0.0165263 0.0233654 -0.027007 -0.00481332 0.0187902 -0.0255299 0.0357554 -0.00561517 0.0315702 -0.0338492 0.0317768 -0.0313471 0.0301062 -0.0335586 0.0121305 -0.0229704 -0.0302579 0.0145668 -0.010865 0.031207 -0.00616189 0.0032408
뢓	-0.0231949 0.007492 -0.0104722 -0.018954 0.0176478 -0.0175972 -0.0244494 0.00859177 -0.0254288 -0.0182396 -0.0221136 -0.00313998 -0.0332477 0.0165908 0.00744696 0.0025568 0.0249653 -0.000773534 0.0230692 -0.0035947 0.00681988 -0.000481643 -0.0309856 -0.0363201 -0.0297493 0.0162903 0.0167462 -0.021826 -0.0374501 0.00043577 0.0157459 -0.014966 -0.0272025 0.00334975 -0.00817096 -0.00187351 0.0368475 0.00181712 -0.000710271 -0.0357025 0.00722572 -0.0337248 0.00868886 -0.0364806 0.00214895 0.0110314 -0.0132691 -0.0178826 0.000260491 0.0245665 0.0298634 0.018191 -0.00853854 -0.0273406 0.0170831 -0.0155323 -0.0126349 -0.0347373 -0.0179083 0.036313
잎	0.00985652 -0.0368699 0.00100346 -0.0383777 3.2261e-05 0.0325362 -0.013 -0.0105201 -0.00243802 0.00313569 -0.00470213 -0.00608887 -0.0307641 0.0306151 0.000360336 -0.031751 0.0290014 0.00589531 0.0377271 0.0151602 -0.00413787 0.0115749 -0.0221477 -0.00345187 -0.0224011 -0.0127921 -0.024364 0.0354062 -0.0292291 0.0350309 0.017392 0.0195809 -0.0125649 0.0279473 0.0245764 0.00253316 -0.0165467 -0.0233533 0.0271086 -0.0336438 0.0162033 0.0239194 -0.0286113 0.0325405 0.00587136 0.0319351 -0.0089399 -0.00149589 0.00437659 0.0277396 0.0161476 -0.0225708 0.0116373 0.0116466 0.0169657 -0.00585189 -0.00147061 0.000736624 0.0232192 0.0266016
뵤	0.0377692 0.0379428 0.0120249 0.0256871 0.0326733 -0.0102657 0.0154418 0.0302588 -0.0173014 0.00293529 -0.0198228 0.0383614 -0.0122775 0.0238557 0.0266641 -0.0175578 -0.0342375 -0.0179588 0.0291786 -0.0293027 0.0314485 0.0348243 0.0220872 -0.026521 -0.0380049 0.0208751 0.00798898 0.0384691 -0.0290334 0.0352438 -0.00532691 0.0328294 -0.0295836 0.0257164 0.0328071 0.0221713 -0.0378069 0.0281391 0.00303183 -0.000648901 0.0242694 -0.0117741 0.0147939 0.0360952 0.00326187 0.0225289 -0.0127344 -0.0363032 0.0380343 -0.00450202 0.0152592 0.0239682 -0.0231465 0.0239399 -0.0360459 -0.0357951 -0.0269049 0.0146046 -0.0339102 -0.0300149
섓	-0.00010347 0.0326764 0.0116865 0.027608 0.0142842 -0.0199348 -0.0376207 -0.0386349 0.00570263 -0.0012272 0.0338169 -0.0163423 -0.0235413 0.00589911 -0.00953944 0.0264386 -0.00777766 -0.0223462 -0.0296608 0.000681687 0.00463015 -0.0171594 0.0102544 -0.0127225 -0.0336696 -0.0341418 0.000373606 -0.0117776 0.0169229 0.0125783 -0.0175086 0.0201284 -0.000111304 -0.0291249 0.00952637 -0.00218938 -0.0380727 -0.00583286 0.0242088 0.0311181 0.0380705 0.0352943 0.0119213 0.0320091 -0.00506493 -0.0375224 -0.0377452 0.005707 -0.0221513 0.0266618 0.00815464 -0.0323252 0.0267239 0.0267818 0.0214108 0.0228258 0.0263135 0.0318823 0.0193221 -0.00292905
긷	0.0125394 0.0174384 -0.0120272 -0.0151513 0.0125711 -0.0159899 -0.0231276 0.030837 0.00285977 -0.00507099 -0.00119013 -0.0342308 -0.00972147 0.0198045 -0.00289823 0.0113392 0.0197462 0.00434486 -0.0376089 -0.0209271 0.00732856 -0.0286556 -0.00872372 -0.023791 0.00931276 0.0166375 0.0348246 -0.0124824 0.0363078 -0.0375044 0.0360821 0.037849 0.000225864 -0.00083977 -0.0301159 -0.0368123 -0.00578379 0.00885153 0.00222775 0.0349079 0.0138285 0.00586756 -0.0263189 -0.03603 0.0103791 -0.0307864 0.0140485 -0.0234418 0.0272395 0.0188909 -0.0175045 0.00261379 -0.031342 -0.0113048 -0.0269918 0.0262275 -0.0130403 0.0168377 -0.0367566 0.00554429
천	-0.00660866 -0.00316464 0.0154299 -0.0190377 0.00812852 -0.00767461 -0.0121722 -0.0296304 -0.0121006 0.00135004 0.0216438 0.00380898 0.0116254 0.0202614 -0.0167547 0.000169229 -0.0154868 0.0131021 -0.00214081 -0.0117345 0.003753 0.00436874 -0.00564583 -0.0061988 -0.0374688 -0.029172 -0.00649089 -0.00465044 -0.0332594 0.0111059 -0.0128989 -0.0256861 0.0083055 -0.0338241 0.0252275 0.0241207 0.0154122 -0.0175914 -0.0340918 -0.0368642 0.00869739 -0.0162313 0.0182634 0.00962741 -0.0138354 0.0305904 -0.0308625 -0.0161676 -0.0252757 0.0152115 0.0333581 0.030216 0.0217863 -0.0122335 0.027994 0.0249994 -0.0202633 0.0159474 -0.0102478 -0.00697937
쩍	-0.0074192 0.0224823 -0.00351935 0.0151951 -0.0174695 -0.00162875 -0.00598561 -0.0115376 0.000462856 0.0129025 0.0187965 -0.0129542 0.0161811 0.0348854 0.0339187 0.0133605 -0.0341327 0.0370344 -0.0215302 -0.00527603 0.0073136 -0.00507739 0.00806191 0.0100983 0.0124519 0.00910161 0.0206125 -0.0158742 -0.0304182 0.0233351 -0.00924719 -0.0334355 -0.0201132 0.0250907 0.00917664 0.0182597 0.0258004 -0.0246228 0.00115948 0.00707497 0.0178972 -0.00903397 -0.0332834 0.018587 -0.0185155 -0.0383734 0.0361747 -0.00503262 -0.00514118 -0.0373403 -0.0260345 -0.00127172 -0.0340135 -0.0112852 -0.033947 0.0203372 0.0070221 -0.0127494 0.00912122 0.0287525
솨	-0.0173045 -0.00519614 -0.00538953 0.0265824 -0.022948 -0.0343698 0.0136152 -0.00954997 0.00396691 -0.0114818 -0.00954561 -0.00626987 0.0280977 0.0292726 0.0364449 -0.0238488 0.0100779 0.0340314 -0.0358703 0.0127434 0.0293132 -0.0117141 0.0138329 0.0345996 -0.0196495 -0.00933912 -0.00855146 0.0116372 -0.00790358 0.0349404 0.0202601 -0.0140186 0.0135864 -0.0334175 0.00932285 -0.0124515 0.0231635 -0.00582403 0.0248572 0.0209744 -0.00692741 -0.0188495 0.0385713 -0.0363782 -0.0269964 -0.0325807 0.0357136 -0.0159142 0.0348726 0.0376607 0.0362858 -0.030403 0.0183627 0.0176453 -0.0318352 0.0132348 0.032901 -0.0130929 0.00930788 0.0325756
던	0.0238304 0.0198255 0.0327999 0.0343732 0.0320697 -0.0143076 0.0101625 -0.0328924 0.0177006 0.0180498 0.00486185 0.0110466 -0.0186425 0.00385434 0.0071619 0.0242202 -0.0169069 -0.0332544 -0.00280042 -0.0125141 -0.0353001 -0.00247288 -0.0368877 -0.00114024 0.00941233 -0.0121242 0.0287069 -0.0123628 0.0297276 0.0115649 0.00931143 -0.0279663 0.0180904 0.0372662 0.0162327 -0.0205805 0.0121647 -0.030283 0.0310499 0.0197814 -0.00626852 -0.0356869 0.0133321 -0.0212369 0.024866 0.0291797 0.000399351 0.00997936 0.019967 -0.00372941 -0.00484097 -0.029504 0.0270552 0.00157367 0.0241107 0.0153177 -0.00531581 -0.0093744 -0.036434 -0.0339249
볶	-0.0120648 0.0197082 0.00522513 -0.0179422 0.0345109 -0.0110152 -0.0176813 -0.00245307 0.0246702 -0.031205 -0.01585 -0.0359342 -0.0124398 0.0247477 -0.0210154 0.0292364 -0.0113074 -0.0325612 -0.00191632 -0.0190225 0.0306743 -0.0170006 -0.0186488 0.00229203 -0.0316159 0.0157535 0.0334265 -0.0134608 -0.0117736 0.0120623 0.0357762 0.0120522 -0.00397286 -0.0294796 0.0264096 -0.0164995 -0.0302764 0.00365473 -0.0115518 -0.0123714 -0.0201568 -0.0175887 0.00379099 0.00898708 -0.0219006 -0.0143102 0.0363035 0.028812 0.00723043 -0.0259368 -0.0358326 -0.0153318 -0.00220291 0.037126 -0.0364781 0.00354495 0.0324333 -0.0270147 0.025812 0.0385972
쩄	0.0178397 -0.0374352 0.0125962 0.0208215 -0.0172507 0.0246817 0.033053 -0.0289214 -0.00751975 -0.0106661 -0.0351725 0.0209766 -0.0136907 -0.012177 0.0280005 0.0314424 -0.0183621 -0.0157612 0.000441879 -0.0139291 0.0300673 0.00781022 0.0330707 0.036714 0.0157121 -0.00885804 0.0264977 -0.0203143 -0.00201734 0.0264913 -0.00501003 -0.00194171 -0.0384437 0.0201178 -0.0285913 -0.0248499 -0.0204896 0.00912585 -0.0291633 -0.0318691 -0.00889025 0.0122426 -0.0312151 -0.0283642 0.00608427 0.0258213 0.0377295 -0.00102724 0.0112533 0.0225393 -0.0343875 -0.038391 0.000283871 0.0237256 -0.00928154 0.0141424 -0.00626162 0.0325436 0.0175191 -0.00157386
몐	0.0207915 -0.00628538 0.0275701 -0.0112472 -0.0372567 -0.0307939 0.0383898 0.0190391 0.0119568 0.029244 -0.0147076 0.0140125 0.0150286 -0.0220164 -0.0296668 -0.0281641 0.016236 -0.017227 -0.018173 0.0352837 -0.0170516 0.0132464 -0.00851651 -0.0292073 -0.0376885 -0.0242074 -0.0156456 -0.0364893 0.00847115 -0.0362181 0.0134719 -0.026795 0.00512717 -0.0340217 -0.0212536 0.0335732 0.00782448 0.026106 0.0184404 -0.0382394 -0.0105901 -0.00744774 0.00485415 0.016603 0.0236332 -0.0284454 -0.0128002 0.0199063 -0.0108921 0.0135369 0.00794549 -0.00539645 0.0128887 -0.0159082 0.0128421 -0.0176956 0.0202259 0.0091325 -0.0238187 -0.0216122
쨍	0.0307014 0.0383224 -0.0291367 0.0355587 -0.0357108 0.0201025 -0.00693739 -0.0375802 -0.0176972 -0.0102578 -0.0342567 0.0115417 -0.0271691 -0.0147521 -0.0383089 0.00620444 -0.0350793 0.0160044 -0.034355 -0.0191003 0.0264949 -0.0311022 0.00710588 0.000790685 0.00204288 0.0276983 -0.00584922 0.0212832 0.0302121 -0.0374885 0.0355295 0.0333239 -0.032779 0.021474 0.012801 -0.0299326 -0.00817916 -0.029661 0.0157882 -0.0261182 0.00365466 -0.0341058 -0.0189943 0.0178033 -0.0145555 -0.0136631 -0.0251307 -0.0276507 -0.00401903 -0.0281064 -0.0219671 -0.033575 0.0322126 -0.0172605 0.0105735 -0.0159164 0.0311266 0.0233518 -0.00665431 -0.0324166
참	-0.0144601 -0.0351992 -0.0136221 0.00354366 0.00573839 0.0196055 0.00241552 -0.000180982 0.036438 0.0102996 0.00161794 -0.0243073 -0.0183624 0.00995712 0.0124797 0.00996538 0.00547047 -0.0307297 0.017818 0.00128517 0.0176264 -0.00745053 0.022364 0.0306326 0.0251538 -0.0222059 0.0135254 0.0154463 0.0141177 0.0287235 0.0159829 -0.0221957 0.0115611 0.0121775 -0.0110287 -0.00489651 -0.000217464 0.000842821 -0.00330722 0.0339467 -0.0179291 0.0348406 0.0222699 -0.015459 0.0170696 0.00686462 0.0174647 0.027739 -0.020538 0.00455888 0.0360558 -0.0141746 0.0300969 -0.00603642 0.0122546 0.0291997 0.00223307 -0.0223025 -0.0144156 0.0122634
깆	0.0137399 -0.0273483 -0.024951 0.00596503 0.0352601 4.10117e-05 -0.0141052 0.0380992 -0.0260601 -0.0193897 0.0166203 -0.0013459 0.0354427 -0.02597 -0.0121598 0.00338124 0.0366425 -0.0126876 -0.0323828 0.0266624 -0.0165548 0.0223674 -0.0111788 0.0189974 -0.0121511 -0.0313743 0.00804685 -0.00296559 0.00872367 -0.0384398 -0.0205548 0.00780067 -0.0282361 0.00141311 -0.00565301 -0.0081416 -0.00929114 0.0178764 0.0165243 -0.00947106 -0.00731109 0.0280127 0.025167 -0.0382651 -0.000731368 -0.00694613 0.0177529 0.0298456 -0.0198172 0.0300119 0.0224105 0.0030911 0.0301407 0.0371114 -0.0384459 -0.00215805 0.0289092 -0.0203609 0.0321412 -0.0283004
역	-0.00750912 0.0179939 -0.0192592 0.0182008 -0.0058072 -0.00595906 0.0308242 -0.0269714 0.0136115 -0.0164664 0.00941744 0.0314666 0.0121547 0.0360311 0.00735827 -0.00912558 -0.0190372 0.022937 -0.00244917 -0.0054786 0.0361789 -0.032798 -0.0365989 -0.0285229 0.00361046 -0.015754 0.0264576 -0.030472 0.0199095 -0.0253016 -0.0347804 0.0208193 0.0283162 -0.0273144 -0.0293606 0.0235824 0.0104465 0.0165219 -0.0195625 0.0265658 -0.0322924 0.00358906 0.016956 0.0262432 -0.0102097 0.00673327 -0.00449016 0.0239549 -0.0102687 -0.0184047 0.00197019 -0.0142557 0.00954916 0.0175068 0.0174648 -0.0161762 0.0218887 0.0254817 0.0382935 0.02272
늰	0.0327992 0.0180754 -0.0198459 -0.0289852 -0.00395239 -0.0224243 0.0245744 0.0191984 0.0222874 0.0140406 -0.0266008 0.0282879 -0.0310313 0.00237748 0.0174046 -0.0350552 -0.00174521 -0.0187777 -0.0222139 -0.0257309 0.00578032 0.0309469 -0.0149772 -0.00403113 0.0354748 0.00303829 0.00382366 -0.00366529 -0.0286241 -0.0142881 0.00169353 -0.0192488 -0.00183956 0.0101721 0.0255782 -0.0284832 0.0276162 -0.00494527 0.00450126 0.0275289 -0.00213143 0.0258683 0.0268395 -0.0372245 -0.0252282 -0.00838524 0.0242231 -0.0245972 0.0240898 0.010058 0.0238313 -0.0220273 0.0276004 0.0249878 -0.0307526 -0.0376395 -0.0351873 -0.0071176 0.0215084 0.00537198
큥	-0.0382082 -0.00599258 0.0122282 0.0236602 -0.0176295 -0.0358704 -0.020589 -0.0297786 0.0149268 0.0149508 0.00980116 0.0122708 -0.0235572 -0.00283256 -0.00055103 0.0266689 0.0227947 -0.0212764 0.0384712 -0.0231003 0.00564691 -0.0171172 -0.0171372 -0.00831779 -0.0357407 0.0110573 -0.0375481 0.0296378 0.018734 0.0357947 -0.000858225 0.00516327 -0.00503099 -0.0131131 0.0189571 0.00778867 -0.0204759 -0.0301616 0.0199107 -0.0200796 -0.00713878 0.0325401 0.0126014 -0.00473879 0.0161862 -0.0364132 0.0149471 0.0300288 0.0216094 0.0133292 -0.00384848 -0.00700492 0.006843 0.0184894 -0.00122428 0.0377616 -0.0246735 -0.0193474 -0.0142034 -0.0286687
꽹	-0.0135177 0.0345049 -9.84967e-06 0.0234017 -0.0364927 0.0113371 -0.0289307 0.0269795 -0.0296474 0.0181129 -0.00167853 -0.0221804 0.0123113 -0.0167815 0.020089 -0.0323848 0.0271656 0.0245477 -0.0315816 0.0300967 0.0349797 -0.0171089 0.0168821 -0.0186059 -0.0384248 0.000250392 0.00167401 -0.0280118 0.00996745 0.0145192 0.00115442 -0.0261775 0.0261569 -0.0292836 -0.00196269 -0.0253263 -0.00806719 -0.0203977 -0.0111191 0.022829 -0.0255166 0.0223953 -0.0302058 -0.0263383 -0.0368992 -0.011631 -0.0295225 0.0301126 0.00516065 -0.00288254 -0.027579 -0.0226029 0.0250511 0.016305 -0.00259474 0.021222 0.0319275 -0.025347 -0.00566761 -0.0123226
렇	-9.72301e-06 0.00988808 0.0334569 -0.0306153 -0.0161846 0.0278524 0.0138108 0.0220106 -0.0309827 0.0297373 0.0227278 0.0375714 -0.00261698 0.0350226 0.0149345 0.0243197 0.0278029 0.0249314 -0.0289839 -0.00219956 0.0296733 0.00410894 0.0240069 0.0141135 -0.00489436 -0.024235 0.0333604 0.0284436 0.0170503 -0.0355601 0.0140735 0.0311847 -0.0022118 0.0180091 -0.0327609 -0.0119566 0.024408 -0.0198245 -0.0343072 0.0308041 -0.00195878 -0.0282906 0.0005861 0.00482807 -0.0196901 -0.0318893 -0.00172342 0.00950053 -0.0315214 -0.00354954 0.0154605 -0.0111879 0.0341216 0.0117673 -0.0153358 -0.0243586 0.0310612 0.0347424 0.0335091 -0.0190237
윱	-0.0144546 0.023908 0.0229425 0.0285933 -0.000888497 0.02441 0.00799266 -0.0379923 -0.00879328 -0.0305983 0.00405292 0.016687 0.0285169 0.0168077 -0.0154613 -0.0247451 0.00324634 -0.0185509 -0.0221326 0.0140502 0.0262473 0.0331893 0.0254565 -0.033658 0.0253853 0.0258806 -0.0312847 0.00273461 0.025144 -0.00351907 -0.0153106 -0.0151777 0.0279127 -0.00317022 0.0161584 -0.0256591 0.0102183 -0.0267798 -0.0281402 0.0327892 -0.00287152 -0.0125973 0.0165483 0.0368093 0.021403 -0.00931496 0.00969228 -0.0123259 0.0252791 0.0361202 -0.00211007 0.0262832 0.0267513 -0.00339714 -0.00864343 -0.0375101 0.0277866 0.0364186 -0.0275303 0.0126783
갓	0.0286738 0.0319794 -0.0117933 0.0220335 -0.0167067 0.0284514 0.0306153 0.000391804 -0.015099 0.00497863 0.0253675 0.0292534 0.00888971 -0.0364443 0.00190787 0.021122 0.0087027 -0.0184492 -0.00417761 0.0341273 -0.0338768 0.0275769 -0.0165107 0.00113512 -0.0227129 -0.0224189 0.0197107 0.0191039 0.0187204 -0.00940675 -0.0247423 -0.0368411 -0.0340383 -0.0136006 -0.0177812 0.0142809 0.0239503 -0.000208132 -0.0221573 0.0248304 -0.012693 -0.0152497 -0.00907611 -0.0269867 -0.032791 -0.0359517 0.0329291 -0.0322745 0.00664206 -0.0377108 0.0297705 0.00593655 -0.00627871 -0.0061542 -0.0163557 0.0174301 0.00987659 -0.033298 0.0219212 0.00873458
찮	0.00684792 -0.0134011 0.0304141 0.00534489 -0.0186439 -0.0350828 0.00841616 0.0310367 0.0360863 -0.011402 0.0338779 -0.0184952 -0.0138429 0.0153424 -0.00538946 -0.0379077 -0.0220443 0.0360532 -0.0293225 -0.00948336 -0.0225482 0.0233722 0.0196852 0.0137842 0.0172017 -0.0190463 -0.000227388 0.00258134 0.00869468 -0.0340513 -0.00478832 -0.0309001 -0.00822938 -0.032486 -0.00835194 0.0276311 -0.0343788 -0.0246295 -0.00292626 -0.0291412 -0.0348385 -0.0327012 0.0326454 -0.00347122 0.0148679 0.0192334 0.0351748 -0.0261178 0.035523 -0.00608289 -0.0105152 -0.0211399 -0.0333279 -0.0312308 -0.00348963 -0.0132033 0.0341008 0.0297263 0.0255545 0.0215205
믽	-0.037486 0.0124047 -0.00239031 0.0213279 -0.0209409 -0.0118673 -0.0273952 0.0109782 0.0321024 7.1045e-05 -0.0119897 -0.00395702 -0.0354444 0.0114356 -0.0155535 0.033056 -0.00733452 -0.00523331 -0.0180049 0.00106106 -0.021908 -0.0290988 0.0239893 -0.00298055 0.0160593 -0.0353386 -0.0113848 -0.0132208 0.0275208 -0.0281634 -0.00706752 -0.0238539 0.0334646 -0.0338883 -0.0325686 -0.00276358 -0.00461517 0.0121828 -0.0285155 -0.0264145 0.0195116 0.0119471 -0.00531175 0.0152187 0.00758054 0.00990596 -0.022484 -0.0207034 -0.0344065 -0.0270665 0.0176709 -0.000544894 0.0110142 -0.0317325 -0.0148213 -0.00346526 -0.0175743 -0.0381144 0.0205673 0.0332528
뚫	0.0208009 0.0266766 0.0186002 -0.0014936 -0.00477419 -0.0287393 0.0135938 -0.0344611 -0.0142702 0.0370574 0.00467978 -0.00587547 0.0032936 -0.00180978 0.0365473 -0.000106305 -0.0235591 0.0311359 0.0112928 0.0110698 -0.00514794 -0.0317738 -0.00631869 0.00552436 -0.0347105 -0.0142638 0.0357463 -0.0321508 0.0378476 -0.0266188 -0.0195109 0.0384211 -0.0194763 0.0268097 -0.0117172 0.00776246 0.00374599 0.017497 0.027321 0.0152324 -0.0109364 -0.0185592 -0.00326573 0.0333727 0.0209055 -0.00623116 0.0383252 -0.0327739 0.0337009 0.0337258 0.000812937 0.0177229 0.0334972 0.0214535 0.0246536 0.00992392 0.0266028 0.0229745 -0.0379768 -0.0277249
코	-0.00427653 0.0035851 -0.00422216 0.00361415 -0.00330902 0.0194617 0.0109107 -0.0178101 -0.0236275 0.0284824 -0.0116156 -0.00168464 -0.0330407 0.0372589 0.0261954 0.0256093 0.0135892 0.00556982 0.0176514 -0.0324248 0.0183874 -0.0132073 0.0232857 0.0364889 0.0108714 0.0270162 0.0386475 -0.0177661 0.029997 -0.0206085 0.0372015 0.00488761 0.00149244 -0.020303 0.0312624 -0.0301187 -0.0221155 0.0135012 0.0262534 0.0168063 -0.00784137 -0.00160072 0.00494844 0.0131674 -0.0272506 -0.0155726 -0.0052946 0.0322012 -0.0175817 -0.00422088 0.018498 0.0142024 0.00318623 -0.0169954 -0.0125699 0.0385177 -0.00835318 -0.00261817 -0.0225239 -0.0332813
슨	0.0345228 0.00628676 -0.0185623 0.0363776 -0.0311252 0.027516 -0.0345519 0.0247312 0.0379496 0.0382275 -0.0328127 0.0252188 0.00091463 0.0236403 -0.00725025 -0.00469078 0.0215464 -0.0354323 0.0179989 0.0246988 0.00222934 -0.0276698 0.0187606 0.0229926 -0.00326315 0.0109377 0.0313505 -0.0221876 0.0310414 0.00384768 0.0264539 -0.0201686 0.00470241 -0.00946667 0.00981891 -0.0091858 -0.0145782 -0.0170349 -0.0185924 -0.0201735 -0.0201507 -0.0249668 0.0298365 -0.0255073 0.0119042 -0.00217029 0.0109581 -0.00662947 -0.0204734 -0.0299487 0.00862043 0.036606 -0.0226444 -0.0375871 -0.00755855 0.0170622 -0.0157815 0.023253 -0.0385915 0.0100932
캅	-0.0357722 0.031619 0.0134603 -0.0325448 0.0122384 -0.0175304 0.0298315 0.0225341 -0.0263644 0.00191137 -0.0048898 -0.00610527 0.025711 0.0122295 -0.0382444 -0.0174389 -0.0222001 -0.0165659 0.00608426 -0.0346728 -0.0216305 -0.00166632 0.00341687 0.0177177 0.000783198 -0.0176519 -0.0118634 -0.0252842 -0.0325 0.0344688 -0.0120698 0.00480998 0.0292517 0.0102071 -0.0359557 -0.0126589 0.00921834 0.0327556 -0.0159807 0.00821348 -0.00443055 -0.0185495 0.0110136 0.030262 0.0142834 -0.0366589 -0.0340508 -0.0120095 0.015599 -0.00784381 -0.0158145 0.0114953 -0.00810034 -0.0256368 -0.0347021 0.0316999 -0.0350268 -0.00623713 -0.0161872 -0.0181523
뎨	-0.0118643 0.014124 -0.0374739 0.00807821 -0.0322255 -0.00760685 -0.0109276 0.0323942 -0.0279811 0.0111455 -0.0203899 -0.00549527 -0.0287998 -0.0116731 -0.00723689 -0.00463195 -0.00438888 -0.00198074 -0.0262919 -0.0115981 0.00629892 -0.0204223 -0.0109312 0.0240246 0.000808012 0.00498469 0.00128505 0.00588159 -0.0286315 -0.0305939 -0.00966591 0.0385667 0.0116945 -0.032346 0.00698335 0.0346392 0.0143193 0.0039116 -0.0025809 0.0266362 -0.0108622 0.0161163 -0.0286524 -0.0244989 0.034424 0.029257 -0.00388847 -0.00804842 0.0265858 -0.0168291 0.0227559 -0.0354758 0.0271415 0.0360019 0.0205442 -0.0202576 -0.0342078 -0.0169345 0.0194539 0.0353868
밝	0.0305162 0.0145773 -0.0336431 -0.00857446 0.00921956 0.0221862 -0.0240635 0.0266972 0.00573479 -0.0363534 -0.00186367 -0.0333173 -0.0022403 -0.0324698 0.0337631 0.0372395 0.0176155 -0.0293945 -0.0138087 -0.0134595 -0.0310427 0.0197177 0.0195344 0.0177401 -0.011319 -0.0179452 -0.0229807 -0.0346205 -0.0180579 0.00431368 -0.0340957 0.0321153 0.0346455 -0.00208556 0.0156506 -0.00116116 -0.00347641 0.015663 -0.0224406 -0.0208724 -0.0347393 0.0265047 -0.0311216 0.0258428 -0.0361171 0.00553476 -0.0299496 -0.0121885 -0.0337999 -0.0178315 0.0280579 0.0226553 0.01212 -0.0253499 0.00348741 -0.0286162 0.0161697 -0.0101309 -0.0386141 0.0201167
로	0.0200447 0.0247594 0.0352805 -0.0134628 -0.0271574 -0.0367462 -0.0306139 0.0055376 0.0349312 0.00894761 0.0197347 -0.0380848 -0.0376541 0.0248904 0.0105318 -0.00499159 3.20189e-05 0.00780668 -0.00538572 -0.000538908 0.00967238 0.0129348 0.034223 -0.00916435 -0.0353256 0.0269204 -0.00605862 0.00520605 -0.0345864 -0.0325704 -0.0322952 0.0171861 -0.0293034 0.0174652 0.0151043 0.0370432 -0.0333237 -0.0108319 -0.0187729 0.0363825 -0.00903919 0.0358788 -0.00743058 -0.0216837 0.0119718 0.014503 -0.0146869 -0.0105447 0.021239 0.0299384 -0.00572365 0.018569 0.0215088 -0.0296446 0.0101303 0.000628173 0.0210155 0.0369313 -0.0203115 0.0120863
엑	-0.0381323 0.00429436 0.00443614 -0.0246646 0.0127538 0.019489 0.0280011 -0.000509724 -0.0382976 -0.0119487 0.00532497 0.000521488 -0.0293271 0.0232244 0.0142875 0.00586193 0.0150875 -0.00816017 0.00678455 0.0286282 0.0352556 -0.0303203 -0.0253138 0.0344821 0.0386901 0.0136378 0.00719121 0.00953265 -0.0383172 0.00385892 0.0296476 0.0333027 0.010307 -0.00964048 -0.0279787 0.0119338 0.0340604 -0.0253705 0.0384508 -0.0151419 0.0357324 -0.0295341 0.0161822 0.0102829 -0.0169775 0.00219074 -0.0312211 -0.0089318 -0.0354598 0.0381643 -0.000913661 0.0287988 0.0282705 -0.0383977 -0.025553 -0.0088027 0.0283445 0.0277671 -0.00621468 0.00940074
봇	-0.0100043 0.00471096 -0.0203105 -0.0119493 -0.015853 0.0118177 -0.00523086 -0.0207287 0.0206882 -0.0043516 -0.0199891 0.00983461 0.000528365 0.0112897 0.0125009 -0.029681 0.0254081 0.0187736 -0.0326447 -0.00210891 0.00739576 -0.0362064 -0.0015348 0.0285645 0.00882965 0.00431997 0.00420209 -0.0191519 0.0250658 0.0240227 -0.0176172 0.0387398 -0.0135839 -0.00391021 0.0311699 0.0221037 0.00166735 0.0160426 0.0357614 0.0384837 -0.0153077 0.0286782 0.00318199 0.0288807 0.0224359 0.0375926 0.0363503 0.0150562 0.0158748 -0.01591 -0.00804566 0.0170776 -0.0188536 0.0358133 0.0229981 -0.0332137 -0.0134568 -0.00929439 0.0118145 -0.034222
쵳	-0.0227977 0.0153383 0.0106802 0.0165169 0.0123625 0.0312208 -0.0343127 -0.00444186 -0.0208837 0.0140552 0.0209901 0.00996391 0.035827 0.0181223 0.0044796 -0.0033289 0.00205268 0.0107817 -0.0344215 0.0232747 -0.0338798 -0.0209485 0.0288922 -0.00667407 0.0274555 -0.00927809 0.00650129 0.021574 -0.0102567 0.027996 -0.012298 0.00475211 0.0340842 0.0152702 -0.0234856 -0.0283179 0.00392874 0.0368792 0.0376008 -0.00936212 0.0296173 -0.012716 0.0239082 -0.0267434 0.034191 0.000152651 -0.0107669 0.0278013 0.0316759 0.00150235 -0.0138415 0.0335118 -0.0142409 -0.0227707 -0.0140494 -0.00174227 0.00671284 0.0192803 -0.0111827 -0.015562
땜	0.00145753 0.0214236 -0.0211942 0.0355516 0.00916932 0.00651584 0.0118317 -0.00641433 0.0275391 -0.0237829 -0.027677 0.0339204 0.0348501 -0.0244467 0.030144 -0.0214188 -0.0111318 0.00659249 0.00957169 -0.00222477 0.0212179 0.022949 -0.0309224 -0.0299 -0.0107094 -0.0104402 0.0191052 -0.00386007 -0.0170159 -0.0197034 0.0351597 -0.000736754 0.0222156 -0.0346487 -0.0195466 0.00152338 -0.00494353 0.00455025 0.00174906 -0.00987882 0.0244439 -0.0312239 0.00265601 0.0219792 -0.0136123 -0.0362996 -0.0132955 -0.00107652 -0.0385676 -0.015511 -0.0258488 -0.0163975 0.0172205 -0.0319475 -0.0280813 0.0177721 0.0328321 0.0233416 -0.0317118 -0.00797399
ㄳ	-0.0380719 0.00878084 -0.0310477 -0.0307107 -0.0103834 -0.0267462 -0.0100811 -0.0343669 0.0221328 0.00204574 0.0309285 0.0189501 0.00826334 -0.0181008 -0.0223844 -0.00480523 -0.0121341 -0.0267448 0.0341996 0.0222712 0.0114637 0.0135788 0.0345558 -0.0236433 0.033087 -0.00858853 -0.00426928 -0.010551 -0.0299082 -0.0103647 0.00482312 0.0157615 -0.0379671 -0.00671845 -0.00257544 0.000317212 0.0179474 -0.0265015 0.0261866 0.02974 0.0153427 0.00322902 -0.0245004 -0.00225693 -0.00518664 -0.0365472 0.0044461 6.65262e-05 0.0172672 0.0216394 -0.0150436 -0.00538275 0.0245022 0.0194129 0.0167336 0.0214928 -0.0355876 -0.0290076 -0.00152516 0.0383596
녬	-0.0104092 -0.0022044 0.0285862 0.035419 -0.0374795 -0.0345672 -0.0136305 0.00342563 0.0253953 -0.000586361 -0.0297531 0.0257674 -0.0101218 0.0175331 -0.0179203 -0.0369673 0.000340395 0.0318098 0.0087918 -0.0277244 -0.0317071 0.0128701 0.0080628 0.00960753 -0.00519392 -0.0127039 -0.0205069 -0.0149653 0.0219809 0.00789347 -0.00550057 0.038052 -0.0132571 -0.0233477 0.0110648 0.0250635 -0.029037 -0.00849201 -0.0181534 -0.00543363 -0.0192477 0.0327201 -0.0085993 -0.0200191 -0.00444343 -0.0323242 -0.0298237 0.0200249 -0.0035489 -0.000750035 0.0243003 0.0124537 -0.0117035 -0.000170365 -0.0311082 0.0349994 0.020317 -0.0251254 0.0213657 -0.0266477
렐	0.0135097 0.0219252 0.0357418 -0.0247898 -0.0250954 -0.022033 0.00260577 -0.0276786 -0.012657 0.0275335 -0.0305731 0.006512 -0.0295185 -0.0223778 0.0181512 -0.0179179 -0.0132966 0.0138327 -0.0356477 -0.00418909 0.0308571 0.0199165 -0.0186131 -0.0300725 0.0321414 -0.0296741 0.0141352 -0.000535719 -0.0198704 -0.035913 -0.00736711 -0.0304158 0.0281507 0.0194903 -0.0324582 0.0288501 -0.0360072 -0.00127582 -0.037766 0.0351326 -0.0227134 0.0368521 0.00184423 -0.016869 0.0149507 0.0132594 -0.00340138 0.0172948 0.00901056 0.00362392 -0.0195551 -0.024472 -0.0245109 0.0253647 -0.0258567 -0.0328795 -0.00890225 0.0092343 -0.0254985 0.0288961
뇩	0.0254108 -0.010277 0.0225277 0.0370423 -0.0180894 -0.0248931 -0.0239954 0.00688234 -0.0149619 0.0082279 -0.0164763 0.0247245 -0.0292235 -0.0154152 0.0228838 -0.0142864 0.00558976 -0.0328214 0.00673466 -0.0125832 -0.00424686 -0.0251479 -0.0138894 0.0277743 -0.0172046 0.0107116 -0.0318514 -0.00928152 0.00674326 0.016306 0.030474 0.0280495 0.00568348 0.0381026 -0.033931 0.0270784 -0.00690952 -0.0316051 0.0223162 0.010213 -0.0148541 -0.0182419 -0.0330489 0.00544062 0.0193411 -0.0206278 -0.0345386 -0.0125631 0.00951771 -0.000385657 -0.0292356 -0.0156248 -0.0166962 -0.0331443 0.0239286 0.0206767 0.00955878 0.0244854 -0.0337616 -0.0254458
목	-0.0227448 -0.0324199 0.00269107 -0.0167965 -0.0126754 -0.00295883 0.0368798 -0.00112224 -0.026131 -0.00859324 -0.0334448 0.0246235 -0.00436547 0.0282981 -0.0251156 -0.0187864 -0.0239445 -0.0257973 0.0371955 0.00327241 0.0349559 -0.00650247 0.0263465 -0.0316986 0.0088523 0.0113887 0.00235617 0.017672 -0.00769364 -0.0138656 0.00357011 0.036853 0.022479 0.013467 0.0219036 -0.00932654 0.0286919 -0.0351664 0.0189102 -0.0377651 -0.0353067 0.00591447 0.0346575 0.017961 0.0354695 0.00585116 0.00809138 0.0289052 -0.0266493 -0.0117452 -0.0387146 0.0325086 -0.0162285 -0.00976284 0.0247103 0.0372688 -0.0321911 -0.0381013 0.0356774 -0.0243243
리	-0.00809808 -0.0287103 0.022723 0.0158041 0.00370031 0.0237535 0.0193442 0.00196562 -0.0101452 -0.0370234 0.0368623 -0.026257 0.0287133 0.0100263 -0.00905971 0.0368311 0.0203442 0.0230277 -0.0381295 0.0196804 -0.0228211 0.0244508 -0.0223824 -0.00312458 0.028506 -0.0104755 -0.0260615 -0.0125063 -0.0245023 0.013352 -0.0231468 -0.00105888 -0.017532 -0.000832193 0.00520953 -0.0271377 -0.0167102 -0.02168 0.0103266 -0.038531 -0.006709 -0.037779 0.0382754 0.0117279 -0.0247819 0.00366326 0.00832702 -0.00640742 0.0291623 -0.0087684 0.0249673 -0.0279019 0.0264157 0.0287116 0.0055779 0.0148084 0.0242339 0.0267812 -0.0286292 0.026393
ㄴ	-0.0280684 0.00774466 -0.0171626 0.0104817 0.00401755 -0.00842675 0.00222889 -0.0191879 -0.0168983 0.0356861 -0.00822527 0.0352631 -0.0294626 0.00450436 -0.0302652 0.00509746 0.00575428 -0.0350906 0.0138835 0.0282884 -0.0206034 0.0349492 -0.0204568 -0.0280541 0.0366609 0.0058343 -0.0181337 -0.0143367 -0.0306592 -0.0212061 -0.0204869 -0.014974 -0.0165626 -0.0320575 0.0046604 -0.0336607 -0.0163947 0.0275752 -0.0373605 -0.00984769 -0.0124552 0.025748 0.0263008 -0.0088048 -0.00534977 0.0319353 0.0215263 0.011081 0.0236846 0.00633344 -0.00530672 0.0334127 0.0234851 -0.00301896 0.0197161 -0.0329087 -0.0331541 -0.0293143 -0.00139431 0.0290753
윗	0.0364939 -0.016796 -0.0213392 0.0210413 0.0359733 -0.0230446 0.0348557 -0.0364686 -0.032107 0.00943425 -0.00929644 0.0156056 0.0345261 0.032985 -0.0227468 -0.00498819 0.0136862 0.0370439 -0.00909515 -0.00197283 0.0128241 0.0144149 0.0248743 -0.00552631 -0.027916 -0.000289388 -0.0191666 0.0121357 0.0130501 -0.0386139 0.017838 0.0214368 -0.0186138 0.0222934 0.00996378 -0.034297 0.0188116 0.020727 -0.0269493 0.0337648 -0.0350251 -0.0193783 0.00120996 0.0295245 -0.0309877 -0.00665181 -0.0193974 -0.0254243 -0.00318176 0.0236952 0.0141157 0.0323165 0.0216117 0.01154 -0.0162656 0.011721 -0.0320315 -0.028786 0.00536325 -0.0132008
혹	0.00520113 -0.0362864 -0.0358331 -0.00667936 0.0343266 0.000114385 -0.0371096 -0.0233251 -0.0334304 -0.0138327 0.0281427 0.00408344 -0.0347405 0.0333756 -0.0248812 0.00930098 0.000614628 0.0248071 0.00137453 0.0250816 0.0151297 -0.0142061 0.0333777 0.0178232 0.0263953 0.0144243 -0.0279721 -0.00681159 -0.0381511 0.016147 0.0313305 0.0182987 0.00625271 0.000405341 0.010257 0.0363753 -0.0187632 0.00824031 0.0215432 0.0107643 0.0113805 0.0156153 -0.0106211 0.000772968 0.0366012 0.0139952 0.00677562 -0.0364082 0.0213705 0.00296667 -0.0372438 0.0127785 0.0227887 -0.00376236 -0.0308301 0.00618266 -0.0332035 -0.0273212 0.0185597 -0.0280239
끈	-0.000629127 0.0096178 0.019734 0.0179863 -0.0233033 0.00557494 0.0242868 0.0361064 -0.00454858 -0.0167972 0.00970179 0.0313489 -0.00585965 0.0320997 -0.0189207 0.023728 0.0226838 -0.00281908 -0.0283606 -0.0145828 0.0292902 0.0118548 -0.0080694 -0.0284392 0.0316115 0.0342232 -0.00640837 0.0115477 -0.00458635 -0.00143192 -0.0268518 -0.016382 0.00522593 -0.0144373 0.0384312 -0.0316502 -0.0291314 0.0005445 0.0176812 -0.0331937 -0.00528868 0.00490299 -0.0127181 -0.0365856 -0.0108043 0.0244355 -0.0038749 0.0170505 0.00859517 0.0142 -0.00115905 -0.0157431 0.0245403 0.0245213 -0.0268948 -0.00876538 -0.0313054 -0.0207832 0.0317177 0.0181555
푼	0.0314159 -0.00944994 0.0244521 -0.0198793 -0.0250361 -0.0265403 0.0352389 0.0250489 -0.00964812 0.0329423 0.0112416 -0.00240219 -0.0263838 -0.00115473 0.00415691 -0.0238656 -0.0274123 0.0329788 -0.027868 -0.00648954 -0.00398009 0.00241953 -0.0160228 -0.0299312 0.0212763 0.0146063 -0.00481142 0.0211852 0.0316722 0.0154246 0.0246194 0.0368078 0.0219806 -0.0072371 -0.0199605 -0.0182668 0.0282418 0.0131976 -0.00999999 0.0118548 0.0356229 -0.0265927 0.00850505 0.00672879 0.0234376 -0.00346126 0.0138243 0.0215096 0.0277329 0.0154118 -0.0287593 0.0204607 0.00504898 0.0366933 0.0315213 0.026432 0.036519 0.0370674 -0.00928503 -0.000953626
앱	0.000863206 0.0351199 0.0339739 0.0161488 -0.0385635 -0.00137877 -0.017906 -0.00061677 -0.0179697 0.025521 0.0217015 -0.0232554 0.0355163 -0.02861 -0.0210065 -0.0228597 -0.0299606 -0.0274095 -0.00848409 0.00835142 -0.0096202 -0.00232519 0.0188172 -0.0374639 0.0061996 -0.0134267 0.0272914 0.00555732 0.0383333 -0.00798702 -0.00498674 0.0205088 0.0163992 0.0321236 -0.00997324 0.00227014 0.0142056 -0.036586 0.0220568 0.00757216 -0.033226 0.0360046 0.0018385 -0.0201296 -0.0264776 0.0366477 0.0203088 0.0184876 0.00170441 -0.0130081 -0.00615244 0.0134426 -0.00587534 -0.0249826 -0.0151874 -0.0264146 0.0166731 0.0378933 0.0217826 0.0287373
민	0.0306426 -0.014311 0.0285614 0.0139211 0.00729945 0.0238344 -0.00658803 -0.00754348 0.038277 -0.0119912 0.0200242 0.0236979 -0.0174702 -0.0270063 0.0352007 -0.0207327 0.00244551 -0.0166361 0.0119419 0.029124 -0.0266102 -0.0170493 0.00357121 0.00202288 0.00877996 -0.0186819 0.0173117 -0.0187478 -0.0266618 0.0231129 -0.00622573 -0.016533 -0.0334115 -0.0180251 0.0304275 0.0362791 0.0085115 0.0179385 -0.0143833 0.0210768 0.0297994 0.013715 -0.0379529 0.0117454 0.0129219 -0.0378707 0.00656356 0.0034583 0.0371093 -0.0246128 0.00895565 -0.0332099 -0.0154056 0.0127383 0.0356584 0.0276014 0.0360039 -0.032411 0.0122713 -0.0182407
곗	0.0236532 0.0101846 0.0360581 -0.035964 -0.0217682 -0.0252838 -0.0309717 -0.0213928 0.0199008 -0.0151705 -0.0061051 0.0277597 0.0361709 -0.00746543 0.0376683 -0.0122154 0.0206919 0.0301398 0.0144075 0.0103909 0.030747 -0.0073408 -0.00249445 -0.0293471 -0.0357596 0.0361434 0.00362801 0.00483306 -0.00661936 -0.0341754 -0.0234151 -0.00879374 0.0329111 -0.00330823 -0.0196312 0.0239861 -0.00620353 0.0357006 0.0278397 -0.0019821 0.0133946 0.027994 0.026864 0.038226 -0.0375048 -0.0291347 0.00589783 -0.00941188 -0.0204619 -0.00865291 0.00624629 0.029201 -0.00631729 -0.0261519 0.00795598 -0.0258841 -0.00160385 -0.010968 0.00230853 0.0265454
률	-0.00930037 -0.0356761 0.0129421 -0.0299288 0.0352657 -0.0179555 -0.0142772 0.0153479 0.00526219 0.00668321 -0.0050965 0.00235705 -0.0231976 0.0117305 0.0190787 0.0210438 -0.0109818 -0.013743 -0.0349179 0.00573532 -0.0254923 0.0273209 0.0239951 0.00854939 0.036005 -0.0382608 0.00285288 -0.00921225 0.0064379 0.0373542 -0.0212829 -0.0291565 0.0194004 -0.0361476 0.00885348 -0.00355775 -0.00637177 0.0292506 0.0249998 -0.0111681 -0.0279978 0.0343032 -0.0269379 -0.0102138 -0.0219958 0.00721065 -0.0214387 0.00170766 0.0163301 0.000982005 0.00257677 -0.0380591 -0.00962163 -0.0146371 -0.0328229 0.0279697 0.0245567 0.0196108 -0.0185839 -0.0280306
뉵	-0.0189759 -0.00983312 -0.00467973 -0.00812658 0.0139868 -0.0247096 0.0184561 0.0289912 -0.00650664 0.0135095 0.0370543 -0.0282139 0.038642 0.0286442 -0.0022187 -0.0216114 -0.0287477 0.0214779 0.0327477 0.0366036 -0.0178006 -0.0363991 0.027998 -0.0366138 -0.0254194 -0.0137176 0.0273284 0.0234578 -0.0379803 -0.017054 -0.00638658 -0.0278413 -0.0123471 0.00598496 -0.0136804 0.00154772 -0.0362068 -0.0194346 -0.023489 0.0145637 -0.0240428 0.00708122 0.0351059 -0.0258492 -0.0381903 0.00354483 0.0220616 -0.0376251 -0.0088517 -0.0312312 0.0144155 0.00730566 -0.0381393 -0.0164266 -0.0254312 0.0322049 0.0183708 0.00358354 0.0275548 0.0216132
싣	-0.0381423 -0.0346389 -0.00426196 0.00456157 0.0244644 0.0171234 -0.0164556 -0.0125601 -0.00767879 -0.0149819 0.0311277 0.0031056 -0.0211241 0.0223051 -0.0372702 0.0362058 0.0336095 -0.0302797 0.0249545 -0.0182199 -0.0127433 -0.0352096 -0.00433969 0.0285784 0.0293096 -0.0193607 -0.019806 -0.00187919 0.00431183 -0.00154454 -0.00643187 0.00155754 -0.0202594 -0.0257313 -0.00110185 0.0321939 0.0209466 -0.0319357 0.0137781 0.0171138 -0.00353219 0.0039612 -0.024304 0.0266378 -0.0293514 0.0373135 0.0354798 0.0157355 -0.0331232 -0.0182401 0.00159281 -0.02968 -0.0138205 -0.038328 -0.0266692 -0.0305433 -0.0234428 -0.00549741 0.0334816 -0.0227081
줏	-0.0317022 -0.0267736 0.0374916 0.0076672 -0.0223559 0.00697233 -0.0335061 0.000643503 -0.032426 -0.0140689 -0.0279749 0.02225 0.0235094 0.0348076 -0.000468556 0.0189946 -0.0158264 -0.0306339 -0.0019927 0.0275727 0.0162297 0.0028518 -0.0192219 -0.0328494 0.0125616 0.0160442 0.0143197 0.0329283 0.0219343 -0.00984229 -0.0372665 -0.0267389 -0.00304342 -0.000159405 0.0367054 0.000107277 -0.0059809 -0.00752225 0.0126954 -0.015771 -0.00101021 0.0110723 0.0269889 -0.00498176 -0.00109483 -0.0172947 0.0136656 -0.00186803 -0.0337244 0.00653465 -0.0270729 0.0143721 0.010992 0.0269595 -0.0197917 -0.0317601 -0.0315889 0.0284956 -0.0151566 0.0295976
퇸	-0.0140743 -0.0237258 -0.020259 0.0145801 0.0217188 0.0354733 -0.008251 -0.0342894 0.0102972 -0.014327 0.00774599 0.00448918 0.00898363 0.00937308 0.029465 0.0297358 -0.0104591 0.0164913 -0.0204131 -0.0206188 0.0151221 0.0156148 0.0328432 0.0128964 -0.0330038 -0.0115769 0.00389142 0.0266802 0.0207469 0.000792827 -0.0262832 0.00508775 0.011963 -0.0366846 -0.007549 0.0195402 -0.0088596 0.0204507 0.0285783 -0.00417763 -0.0241009 0.0102886 -0.00176641 -0.00545616 -0.00880211 -0.0375504 0.00368947 0.00198505 0.0296663 -0.0231322 -0.0122933 -0.00550579 -0.00643695 -0.00956287 -0.0206453 0.0103226 0.0291949 -0.00556873 0.000767712 -0.00138573
걲	0.031603 -0.00824691 -0.0364496 -0.0232899 -0.0159365 0.0176197 -0.00472688 -0.010166 -0.0174254 0.0359183 0.0354333 0.0149819 0.00884318 0.0044893 0.0294181 -0.0174769 -0.0310433 -0.00270082 -0.00865733 0.0322913 -0.0320748 0.0170241 -0.0332901 0.0120431 -0.0277504 0.0256484 0.00514659 0.0376548 -0.0245567 -0.0282229 -0.0265941 0.0232387 0.00928846 -0.0255538 0.0303129 -0.023466 -0.0330215 0.0282893 -0.0286265 0.0291553 -0.0188656 0.0345741 -0.00290326 -0.0145881 0.00349519 0.00745516 0.0107306 0.013786 0.019286 0.0343456 -0.0372564 0.0033831 0.0319831 0.0184879 -0.0250663 0.0184208 -0.000757482 -0.015026 -0.0261075 -0.0258887
쉽	-0.0305578 0.00229889 0.0143482 0.0355193 0.0385791 0.00381902 -0.0223634 -0.0121409 -0.00228152 0.000193659 0.0255753 0.0181344 0.0202478 0.0139067 0.0273945 0.0198752 0.00360692 0.00142088 -0.0109198 0.00371378 -0.0350033 -0.0213737 -0.0368884 -0.00706554 -0.0220239 3.51816e-05 0.0267483 0.0268391 0.0269531 0.0139189 -0.0229612 -0.0255692 -0.0236184 0.0198091 0.0189758 0.0313943 0.0224406 0.0375776 0.0379664 0.0265349 0.0203005 -0.0268901 -0.0333328 -0.0363565 -0.00853672 -0.0147286 -0.0266864 -0.0324021 0.0100838 0.0374359 0.0102785 0.0378062 -0.00531406 0.0290978 0.00619436 -0.0353356 0.0330475 0.0219788 -0.0202558 0.00866001
졋	0.0103813 0.0246563 -0.00760626 0.0229925 0.00423653 0.0280981 0.037437 -0.00700096 -0.0260293 -0.015767 -0.0323207 -0.0109823 -0.0248846 -0.0151937 0.0333363 -0.0128205 -0.0165934 0.0186018 0.0227524 -0.0138277 -0.026595 0.00224546 -0.0266103 0.00841828 0.0253909 -0.011757 0.0209648 -0.00226816 9.39779e-05 -0.0126118 -0.0356664 0.00201934 0.015827 0.0054013 0.0293592 0.00101872 0.00478283 -0.0302257 -0.0342575 -0.0381186 -0.0108196 -0.00248911 0.00355338 -0.02683 -0.034586 0.0316248 -0.0255147 0.0249706 0.024159 0.00194663 -0.0014913 0.0214748 0.000665739 -0.0224149 -0.037736 -0.00594536 0.00821355 0.0143614 0.00928786 -0.0111106
튁	0.0194377 0.0292556 -0.0368478 0.00313142 -0.00810159 -0.036615 0.0277934 -0.00579562 0.030867 -0.0211318 0.0240456 -0.00726062 -0.00616436 -0.00215925 -0.00806474 -0.0373971 -0.0298524 -0.00753547 0.0120404 0.00471833 -0.0363024 -0.0106065 -0.0383629 -0.0177698 0.0325579 -0.01955 0.0103557 0.0318296 0.0189304 -0.0298119 0.00316662 0.0310092 0.0111769 0.0121926 -0.010652 0.038169 -0.0378465 -0.0206435 0.0136005 0.0307939 0.0347095 0.00567141 -0.0369759 0.00595067 -0.00942142 -9.22866e-05 -0.0210841 0.00084779 0.0123199 0.00674625 -0.0197533 0.0294393 -0.0273926 -0.0366415 -0.0266344 -0.00671241 0.000365023 -0.0227179 0.0364207 0.0147747
념	-0.0172467 -0.0239473 -0.00484781 -0.0313538 0.00428202 -0.0211504 0.0226497 0.0356726 0.0123592 0.00831031 0.0273882 0.0243284 0.0201755 -0.0196623 -0.0276542 0.00379872 -0.0115181 0.0217456 0.00732714 0.0240512 -0.0242268 -0.0246907 0.0225518 -0.00217504 -0.029853 -0.00930601 0.0336078 0.0300491 -0.00886656 -0.032778 -0.0277854 -0.0029729 -0.013799 0.0228549 -0.00250361 0.0371225 -0.0232981 -0.0185855 -0.0129107 0.0310219 0.0211678 0.0379344 -0.0242856 0.02023 -0.028857 0.0108908 -0.0215787 -0.00243308 -0.0298955 -0.0216349 0.0343022 -0.0303439 -0.0147477 0.0304465 0.00933851 -0.0347651 -0.0163874 0.00222868 -0.0159647 -0.0368401
굶	-0.0304945 0.0203314 0.0149713 -0.00372463 -0.0323919 0.0104245 0.0109102 0.0159739 0.00349699 -0.0290024 0.0107967 -0.0159081 0.0355602 -0.0343043 -0.0180047 0.0229179 0.00338381 -0.0284408 0.0360572 0.00409334 -0.0164618 0.0364377 -0.0108397 0.0177042 -0.00933554 0.0239246 -0.0274088 -0.00348921 0.00596368 -0.0295608 -0.00764997 0.0124328 -0.0267285 -0.0323262 -0.011572 -0.0183043 0.0206477 0.00608269 -0.0174655 -0.0305303 -0.00434825 -0.0193202 0.00686893 0.024996 -0.00554325 0.0144085 -0.00360632 -0.025187 0.00573223 0.0387341 0.00530656 0.0351257 -0.0173505 0.00668341 0.0192835 0.0210127 -0.0249459 -0.0158633 0.012381 -0.020089
국	0.0150465 0.0199628 -0.00833151 0.038398 -0.0198796 0.0183401 -0.0206855 0.00436927 0.00489811 0.0338608 0.0319103 -0.0319801 0.0243094 0.0320749 -0.0249965 0.0140974 0.01917 0.0200488 0.0115637 -0.0172873 0.0332878 -0.0189338 -0.0350918 -0.00376915 -0.00828468 -0.000342097 -0.038685 -0.00799266 -0.00249197 -0.0226692 0.0147792 -0.0241359 -0.0246166 -0.03062 0.00774362 0.024359 0.0345492 0.0134352 -0.0123965 -0.0167824 -0.0174559 0.0189476 -0.024059 0.0153182 -0.0308188 -0.029297 -0.0104124 0.00780946 -0.0172283 0.023557 -0.0259701 -0.0129888 -0.0305116 -0.00748716 -0.0140878 -0.0271943 -0.0335683 -0.0231636 -0.0149735 -0.0186163
좍	-0.0350094 -0.0264102 0.00134213 0.0108229 0.0243132 -0.0333801 -0.031693 -0.0296202 0.0164269 -0.00582031 0.0149125 0.0359173 -0.038248 0.0140209 0.00512562 0.0148468 0.0165373 -0.00636184 -0.0307506 0.0321652 0.0258061 -0.0240868 0.0193063 -0.0142047 0.0101092 -0.00277419 -0.0283962 -0.020367 0.00919554 0.00181272 -0.013516 0.0323209 0.0131853 -0.00862702 -0.0140742 -0.0114267 -0.00595978 -0.0342439 0.0374281 0.022877 -0.0281158 0.00895627 0.00614683 -0.0144624 -0.014246 -0.0152547 0.0288299 -0.00163948 -0.0380813 -0.0340287 -0.0270345 -0.00554263 0.0327572 0.0241063 -0.00610688 -0.0304074 0.0384294 0.0215167 -0.0107577 -0.00586648
팥	-0.0222678 -0.00430172 0.0179589 0.00679877 0.0174934 -0.0223316 0.00709455 0.014706 0.028797 0.00918005 -0.00727927 0.0080691 0.0301864 -0.0233867 0.00525885 -0.0214501 -0.0345598 0.017938 0.013531 0.0245029 -0.00537779 0.0268195 -0.0110957 0.038747 -0.0178854 0.0317023 -0.00422841 -0.0231328 0.0233507 -0.0256687 0.0361277 -0.00412237 0.00535147 -0.00459788 0.0191972 -0.0195559 0.0240534 0.0383402 0.000824284 0.0309804 0.020986 0.0273499 0.00627935 0.000609241 -0.00825889 -0.0141959 0.0285517 0.0381235 -0.0260229 -0.000268474 -0.000548434 -0.00442249 0.0190099 0.0340785 -0.00267499 -0.0162034 0.0364405 -0.00408551 -0.00591833 0.026625
푱	-0.0245266 0.0154405 0.0172287 0.0303267 0.00389734 0.00175972 -0.0132683 0.0142158 -0.0330876 0.00475184 -0.00207423 0.0240829 -0.0036426 0.0123522 -0.0235169 0.0150151 0.0374866 -0.018855 -0.0228426 -0.0324658 -0.00141598 -0.00748156 -0.000475951 -0.03059 0.0110497 -0.036021 0.00501051 0.00247534 0.037279 0.00310456 0.00739343 -0.0139855 0.00870029 0.0221832 -0.0349106 0.00750741 0.0210371 0.00250139 -0.0245107 -0.0303613 -0.0347713 -0.000977442 -0.00956067 -0.00744489 -0.00874086 0.00159645 0.00101055 -0.0211133 0.0327103 0.0315579 0.0085135 0.0125165 0.0354904 -0.03685 0.0181103 0.0378452 0.00465125 0.0260921 -0.0163872 0.0058134
뱀	0.010623 0.00225453 0.0227241 0.0201381 -0.00687683 0.0160749 0.025495 -0.000402901 0.00991456 -0.0216866 -0.00388988 -0.032617 0.0146697 0.0187717 -0.00575221 0.00431152 -0.000588123 -0.00943138 0.0340734 0.0383297 -0.00583469 0.0336687 0.0330839 0.0209994 0.024201 0.0181285 0.00929708 0.0129104 0.00782688 0.0217229 0.027881 -0.0284718 0.0284624 -0.0262893 0.0272961 0.0304719 0.0376414 0.0145265 -0.00296161 0.00462304 -0.0142362 0.0216054 0.0291885 0.0244875 -0.0210585 -0.025544 0.0366429 -0.0193705 0.0106016 0.0257632 0.0359071 0.0165851 0.0307246 0.019339 0.038294 -0.0100627 0.0354408 0.00614743 -0.0148198 -0.0280336
칵	-0.00955224 -0.0298076 -0.0131617 -0.0324006 0.0335283 -0.00288557 0.0369058 0.0221798 0.00779569 -0.0265249 -0.00565197 -0.0310111 -0.0320848 0.00169999 0.0371011 0.0135704 -0.0231345 -0.013218 0.00710144 0.02089 -0.00853135 -0.0106757 0.00598732 0.0105737 0.00605068 0.0125327 0.0320571 -0.0330027 0.0218905 0.0137286 -0.0214488 -0.033023 0.0380801 0.0244191 0.0305136 0.025382 0.0160923 -0.000704549 0.0271137 -0.0364912 0.0060991 -0.0295204 -0.00926678 -0.00131948 0.0280374 -0.037821 -0.00797539 -0.0248799 -0.0116001 0.00376152 0.0172432 -0.00949128 -0.038239 -0.00455163 0.0277866 0.0315893 -0.036964 -0.0273681 0.0140992 -0.0262784
뵘	-0.0198399 0.0208982 0.0213575 0.0142 0.0379762 0.025062 0.0228132 0.00281174 0.0121892 -0.00800658 -0.0322714 0.00601253 -0.0189767 0.023764 0.000669491 -0.00427471 -0.0301034 0.021338 -0.028681 -0.0376123 -0.0140917 -0.00746579 -0.0385431 0.030742 -0.0180445 0.0277093 -0.0018688 -0.0314113 0.00966333 0.00602979 0.0232408 -0.0170473 0.0115489 0.00734001 -0.00805249 -0.0244559 -0.0350999 0.00343101 0.014411 0.00810373 0.0197678 -0.000144582 0.0228401 -0.0177417 -0.0100143 0.0293391 -0.0353498 0.0190899 0.00919534 0.0299138 -0.0318043 -0.0259142 -0.0221818 -0.0370355 -0.0287779 -0.0318161 -0.0273591 0.0209957 -0.00799974 0.00860335
쳣	-0.0327323 -0.0373253 0.0259779 -0.00953579 -0.0332709 -0.0201868 0.0262917 -0.0180911 -0.0308998 -0.0164985 -0.0184609 -0.0271332 -0.0337088 -0.00788143 -0.0129652 -0.00785463 -0.0330141 -0.038229 -0.0022224 -0.0122595 -0.0327451 -0.0134501 0.0325652 -0.0327817 -0.0225192 -0.0261424 0.0303768 0.0157956 -0.033267 0.00119102 -0.0144636 0.026537 0.0217036 0.0367681 -0.000846583 -0.0324944 0.0246183 0.0191966 0.0335751 -0.0330977 0.0305944 0.033322 -0.0184231 0.00773394 0.0221629 -0.00621943 0.0191611 0.00941006 0.00952356 0.00910952 -0.0368824 -0.0367587 0.0320602 -0.0354483 -0.0318868 0.0343905 -0.0204061 0.0358733 0.0168523 -0.0289656
맇	0.0379798 -0.0383596 0.0197518 0.00140213 -0.00248824 0.022241 -0.0254386 0.0295247 -0.0258884 0.0273247 0.0348181 -0.0207685 -0.00375273 -0.036999 -0.0186691 0.0139614 -0.020453 0.0318661 -0.0331532 0.00561788 0.0353946 0.000984251 -0.0127011 -0.0154133 0.016135 -0.00464968 -0.0223208 -0.0247737 0.0029457 0.0117432 0.035471 -0.0332386 -0.0374177 -0.0106794 0.00183782 0.0358137 0.0360765 0.00300423 0.0153468 0.0109192 0.0345612 0.0110111 -0.00921293 -0.00131616 0.0143832 -0.025132 -0.00148624 0.0370802 0.016459 -0.0386491 0.00625111 0.0135069 0.0318202 -0.0233833 -0.00176043 0.0134405 -0.0114195 0.0149019 0.0240875 -0.00884095
쩐	0.00334745 0.0299536 0.0225787 0.0227806 0.036188 -0.026194 -0.018851 0.0254306 -0.0178428 -0.00378798 0.000930157 0.0373222 0.0109702 -0.0226863 0.0237394 -0.0344058 -0.0272555 0.0256134 -0.00255177 -0.00815779 0.037703 -0.0223595 -0.0366532 0.00629668 -0.0164766 0.00440094 -0.0188351 -0.0313945 0.0163296 0.0256159 -0.0097365 0.0241403 -0.0243134 0.0370102 0.0252469 -0.0173187 0.0213398 0.0285803 -0.00902156 -0.00387058 -0.0160378 0.0288985 0.0343436 -0.0381524 -0.0190936 0.00854041 0.0212022 -0.00150414 0.0378473 -0.0159785 -0.0299974 -0.0285171 0.0140491 -0.0234025 0.00681403 -0.0295736 -0.0147224 0.000119898 -0.00300265 -0.0241087
쉉	-0.025762 -0.00762351 0.0265251 0.034761 -0.0304591 -0.00663143 -0.0287265 -0.0359467 0.027992 0.0215322 -0.0355279 0.0130745 -0.00529577 -0.0349692 0.0118284 0.0119737 0.0229684 0.0354539 0.00500283 -0.0211514 -0.0313463 0.0294336 -0.00733907 -0.000395868 0.0355623 0.0280343 -0.00911257 0.0331198 -0.0165653 0.0134115 0.0199158 -0.0247124 0.0269938 -0.0203672 0.0335046 0.0297802 -0.0352919 -0.02317 -0.00721423 -0.0177004 0.0242134 -0.0382815 -0.0245608 -0.0182162 -0.00854483 -0.0242941 -0.0322506 0.0371602 -0.0223305 0.00796085 -0.0127985 -0.0215134 0.00878923 0.00883033 0.0122072 0.0115354 -0.00586996 -0.00527212 0.0328214 -0.00912774
퇼	-0.0256747 0.00684164 -0.0378517 0.00253473 0.0135083 0.0173791 0.017383 -0.00579595 -0.0288315 0.000526406 0.0336729 0.0154579 -0.00972504 0.0149956 0.00557183 -0.0185346 -0.0335143 0.0352703 -0.0121995 0.00345882 -0.00604439 -0.0347754 0.00217594 -0.02379 -0.0301251 -0.0251079 -0.00132132 0.0286589 0.010726 -0.0253632 0.0366919 0.0344677 -0.0320621 0.0317098 0.0384931 0.00826992 -0.016622 -0.0292316 0.0190113 0.025476 0.0301254 0.0232313 -0.0177949 0.0351127 -0.0117815 -0.00192443 -0.0261331 -0.0206873 0.0149772 0.0378983 0.0224724 0.0360643 -0.0047698 -0.0206878 0.0355646 0.00973761 -0.00230696 -0.00574705 -0.0201695 0.0150491
겂	-0.033686 0.0304625 -0.0146358 0.0140752 -0.0322981 0.0365013 0.00899481 0.0123727 -0.0300431 0.0135278 0.0155816 -0.0224703 -0.0340608 -0.0334501 0.0185404 -0.00271262 -0.0194113 0.0248851 0.0324818 0.0378849 0.00885873 0.0186376 0.0255142 0.0320762 -0.0205024 -0.0107656 0.0317979 -0.0167203 -0.0194422 -0.0156968 0.0171103 0.0354564 -0.0259613 0.0254137 -0.0211431 0.00586757 -0.0381747 0.002123 -0.0314707 0.00875959 -0.00535706 -0.0382564 -0.00977804 0.000195462 0.00560527 -0.00291396 -0.0202167 -0.024235 0.0228579 0.0010081 0.0189169 -0.012074 -0.0303854 0.0141169 -0.0193021 0.0117516 -0.00733665 -0.0379046 -0.0379375 0.0217216
새	-0.0235392 0.0240697 0.0374318 0.0119563 -0.0137866 -0.00348136 -0.00240056 -0.0177533 -0.0285647 0.0121705 -0.0321035 -0.0196237 0.0324612 0.0221929 0.0136934 -0.0121421 -0.0335925 0.0322569 0.00253122 0.0134887 -0.0309369 -0.0285013 0.00112207 0.00366376 -0.0189928 -0.00202228 0.0300549 0.0258464 -0.0331893 0.0286586 0.0168177 -0.0279439 0.0179002 0.0305543 0.00960905 -0.00971654 0.0122831 -0.0361074 -0.0255635 -0.0287989 0.00622371 0.0244188 0.0254443 0.0315049 0.00716446 0.0196766 -0.0111014 0.0292721 0.00390074 -0.0281573 -0.038643 0.0112253 -0.0257063 0.0324659 -0.0324622 -0.00206042 0.0358385 0.0266497 0.0341602 0.0219494
칙	-0.0357491 0.0133981 0.00193685 -0.0214892 -0.0149929 -0.00846677 -0.0347272 -0.0154805 0.0265148 -0.010478 -0.0171927 -0.0121487 -0.0231967 0.0194008 0.0276313 -0.000138085 -0.00916042 -0.0370839 -0.0196211 0.0203967 0.0196143 -0.0253538 0.0211205 -0.0112515 -0.024749 0.00804367 0.00639436 -0.0368372 -0.0153594 0.0381727 -0.0343929 -0.035595 -0.0124329 0.0322871 -0.0199083 -0.00281794 0.00573164 -0.00442692 0.0295545 0.0237568 -0.0350353 0.00883491 -0.0368231 -0.0169559 -0.0332307 -0.0118469 -0.0195048 -0.00340025 -0.00245225 -0.0155655 -0.0250425 -0.0186883 0.0171815 -0.00179786 0.0357554 -0.0170149 0.0299044 0.014451 -0.0352555 0.0218705
궈	0.0211508 0.0211302 -0.00109529 0.0148545 0.0180262 -0.0157762 -0.0224964 -0.0341462 0.0257759 0.0380402 0.0301749 -0.0162649 -0.00372992 0.0230337 0.0301876 -0.0187024 0.0109567 0.0345682 0.0290089 -0.0184152 -0.0139308 -0.0376219 -0.0276875 0.00662505 -0.00794333 0.0175511 -0.00299705 0.0131105 -0.0254853 0.0248569 -0.00211496 -0.00584788 0.0162388 -0.00846973 0.0367736 0.00686301 0.00161775 0.0142536 0.0214663 -0.00425779 0.0311014 -0.0165612 0.00547745 0.0163588 0.0292843 -0.00171141 -0.0387052 -0.00550463 0.00122197 -0.0172347 0.0133098 -0.00939998 -0.00289145 0.00317012 -0.0230929 -0.0274789 -0.000271384 -0.0129503 -0.00309913 -0.0114895
꽥	0.02652 0.0232065 0.0230916 -0.008167 -0.0376506 0.0199159 0.0297548 -0.00134953 0.0153236 0.00325972 -0.0186397 -0.0027821 0.0210925 -0.022653 -0.0174209 -0.0377329 0.026272 -0.0324322 -0.0113901 0.00408019 0.0135242 -0.0220721 -0.0384865 -0.000399314 0.0353543 0.0113086 -0.0362337 0.0234742 -0.0162922 -0.0261375 -0.00428315 -0.01597 0.0336261 -0.0060787 -0.0250108 -0.0114382 -0.00579204 0.023282 -0.0276123 0.00174461 0.00716901 0.0267876 0.0223371 -0.031292 -0.0215095 0.0290303 0.0185707 -0.00888116 -0.033395 0.00647875 0.00312662 -0.0128795 0.0314058 0.0126137 0.0277332 -0.00263136 0.0211296 0.0177574 0.0246679 -0.0330451
죤	-0.0343409 -0.00266986 -0.00282208 -0.0380227 -0.00812859 0.0217598 0.0295091 -0.0326544 -0.0136535 0.00739043 -0.0374707 -0.022286 -0.0163618 0.0188461 -0.0366035 0.0315526 -0.0226025 0.0385101 0.000722338 0.0112906 -0.0338405 -0.00491391 -0.0240862 0.000650879 0.0267924 0.023259 0.00830685 0.00140699 -0.0114362 -0.00522581 -0.0052326 -0.0197025 0.0125752 0.00851278 -0.027442 -0.0290739 0.00530452 -0.00136895 0.0315966 -0.025632 0.0108162 0.0324319 0.0154362 0.0214955 -0.0208974 0.0134302 0.00624042 -0.0184925 0.0209798 -0.00365397 0.0302681 -0.0348232 -0.0261426 0.0151951 -0.000719752 0.0374659 0.0121525 0.00863814 -0.02488 0.0182779
ㅙ	0.034964 0.0258996 0.0196119 0.0156395 0.0264127 -0.016044 -0.023684 -0.0294281 0.0149003 0.0119284 -0.0373059 0.0362221 0.00176844 -0.0110536 0.0375914 0.0267833 -0.0266986 -0.00823163 0.0171195 0.0253537 -0.0241909 0.0335105 -0.021638 0.0382335 -0.0167934 -0.0217722 -0.0159622 0.0112742 0.0337954 -0.0134106 0.00011551 0.0262817 -0.0383113 -0.00705705 0.0248293 0.019752 0.000911996 0.00790137 0.0213045 0.00426393 -0.0375181 -0.0145337 -0.0310668 -0.025704 0.0313704 0.00671992 0.0108392 0.00193692 -0.000181288 0.021456 0.018956 0.0298268 0.0144606 0.0132333 -0.0262151 0.0222616 0.0249809 0.00302419 -0.0371279 0.0266411
벵	-0.00876555 -0.0159375 -0.0271103 -0.0198387 0.0349279 0.00480518 -0.0208939 -0.0302566 -0.0249917 0.0311741 0.0126181 -0.0078272 -0.0180284 -0.0139605 0.0226472 0.0256897 -0.00636417 0.0205789 -0.00911678 -0.0282415 0.010239 0.0134006 -0.0159268 0.000184577 -0.00916299 -0.033064 -0.0031578 -0.0332317 0.00442246 -0.0345028 0.0154772 -0.011203 0.0385495 0.0185874 0.0208123 -0.0248427 0.0374937 -0.003062 0.0217501 0.0179314 -0.0136323 -0.0104493 -0.0319937 -0.0324751 0.0356475 0.0133916 -0.00906851 0.0165273 0.00164282 0.0253902 -0.0135818 -0.0215283 0.00664176 0.0353714 0.0139084 -0.00242676 0.00826424 0.0238018 0.0313644 0.0285028
켁	-0.00296849 -0.0294661 0.0113708 -0.0206181 0.00747136 -0.0104476 0.0382482 0.0275339 -0.0311304 0.0112436 0.0272685 0.0114058 -0.0225778 -0.0153313 -0.00498462 -0.0269872 0.0212192 -0.00133419 -0.0219219 0.0208164 0.0317694 -0.0156778 -0.0112174 0.031691 -0.023002 0.0049322 0.00595553 0.0269454 0.00956479 -0.0199479 0.00184293 0.00571373 0.00210366 -0.0208886 0.0223725 -0.0125387 -0.0131036 0.034896 0.0379339 0.0235477 0.00469195 -0.015875 -0.037696 -0.0229549 0.0301619 -0.0240718 0.00908881 0.0247865 0.0120115 0.00495023 0.00995949 -0.0152086 -0.0189366 -0.0330721 0.0258343 0.00352833 -0.00966207 0.0126613 0.0116795 -0.026736
둰	0.0300279 0.0269759 0.0362932 -0.037023 0.0351878 -0.00322178 -0.0131297 -0.000165984 0.0309345 0.0249423 0.0294569 0.00679915 -0.0122207 -0.0217958 0.0190085 0.0378774 0.0287164 -0.0156815 0.0103738 -0.00935088 0.0270384 -0.0182515 -0.0344316 0.0079117 0.0145075 0.00529214 -0.0268651 0.0221599 0.0174635 -0.0313118 0.00293465 -0.0297764 -0.0366705 -0.0122614 -0.013288 -0.00702579 -0.0133692 -0.000942335 0.018333 0.0258439 -0.0151134 0.0255439 0.0067143 0.00160415 0.0355953 -0.0241876 -0.0185566 0.0383152 -0.0187007 0.00946895 -0.000183016 0.0031826 0.000894282 0.0143239 0.0294808 -0.0214729 0.0196289 0.00131568 0.0307099 -0.0171467
씹	0.0175429 -0.0318289 0.0114278 0.0358489 0.0143718 0.0349696 0.010623 0.0322209 0.00510271 -0.00104879 -0.0327426 0.0105861 0.0186093 -0.0333091 -0.00810282 0.025179 -0.0290058 -0.0352107 0.00620952 0.0360542 0.031976 -0.016596 -0.0184109 0.0239586 0.0290486 -0.0193248 -0.00883179 0.0142724 0.0150058 -0.0175876 -0.00164692 -0.0139431 -0.0158283 -0.0344958 0.00951165 -0.021651 0.00687455 0.0244281 0.0356042 0.00756363 0.0174597 0.0163082 -0.013413 -0.001328 -0.0360501 0.00554954 0.0253043 0.00292235 0.0131939 -0.0272285 0.016768 -0.00597434 0.0353166 -0.0232737 -0.0145552 0.0210546 -0.0258215 -0.0162493 0.00432773 0.00398066
왜	0.0056055 -0.0254333 0.00499769 -0.00762114 -0.00389683 -0.0138108 0.026143 0.0387425 -0.0326863 -0.0156069 0.0198923 -0.0176551 0.0325816 0.0118994 -0.0104555 0.0180965 -0.0352593 0.00877596 -0.00899644 0.000131045 -0.0072789 0.000737511 0.021065 -0.0295968 -0.00205233 -0.000384465 0.0248434 -0.01456 0.0292443 0.000615913 0.0335368 0.00677934 -0.0322429 0.0122608 0.0111427 -0.0346545 0.000463095 -0.0144931 0.0378327 0.0196315 0.000378571 -0.0150204 -0.0159815 0.0362905 0.0105491 -0.0170651 0.00351231 -0.0375727 0.0124324 0.00613607 0.0262152 -0.0333894 0.00863666 0.0236954 -0.00558998 -0.0170285 -0.00918575 0.0208789 0.0182411 0.0300734
셍	-0.0350351 -0.00973298 0.0249281 0.00185313 0.0273587 0.00509844 -0.00739478 0.0182646 -0.0093219 -0.0267699 0.0323183 0.0183477 -0.0198176 -0.0343812 0.0163416 0.0124432 -0.0215862 0.00260373 -0.00918782 0.0263484 0.0362296 -0.0345212 0.00503515 -0.0236486 -0.0177478 -0.0240876 0.0164284 0.0117172 0.015089 0.0307018 0.0311606 -0.0127004 0.0361401 0.0209685 0.00215757 -0.0277565 -0.00816402 0.0373663 -0.0205707 0.022044 0.0213753 0.0081229 -0.0181313 0.0238363 0.0222006 0.0116972 0.0140501 0.0378024 -0.00258915 0.00093947 0.0290504 -0.03379 0.0165349 0.0179191 -0.0294972 0.0330874 -0.0262563 -0.00988325 0.033027 -0.000525277
힜	-0.0220338 -0.0216416 0.000220716 -0.0165014 0.0231691 -0.0369042 0.00165837 -0.00315828 0.0102022 -0.00923731 -0.00098756 -0.00260802 -0.00551287 -0.00647632 0.0265518 -0.038362 0.0353312 0.0261769 -0.0272693 -0.0182487 -0.0172581 -0.00972665 -0.023538 -0.0171584 -0.0286458 0.00104534 -0.00505728 0.0283409 -0.035386 0.035203 0.0132018 0.0158246 0.00632102 0.0185414 0.035242 -0.0306264 0.0128206 0.00946272 -0.00280916 -0.022724 -0.0288008 0.00176321 -0.00668743 -0.0172724 0.000312433 0.0102774 0.0372491 0.0107539 0.0221968 -0.0179452 -0.0339995 0.00698661 0.0322361 0.0355684 -0.00910185 0.0336155 -0.0265407 -0.00606039 0.0158521 0.0282608
션	0.0357275 0.0106459 0.0244331 0.0279173 0.0268277 -0.0199428 0.0190914 0.0269199 -0.0381443 0.0152299 -0.0115189 -0.00567637 0.0174341 0.0178915 -0.0351947 0.0215909 -0.0265014 0.0179659 -0.026725 0.0035028 0.0386494 0.0157539 -0.00919481 -0.0192752 -0.0387514 -0.0186803 -0.0300921 -0.00362043 0.0360184 -0.00769789 -0.0353985 0.0310032 0.0289494 0.012881 0.0312311 0.0370405 0.028805 -0.0358514 -0.00663701 0.0211293 -0.00784616 -0.0341598 -0.0379797 -0.0262881 0.033601 0.00353616 -0.0307194 -0.00729951 -0.00952943 0.0383957 0.0144945 -0.0168153 0.000678834 0.0119765 0.033863 0.0218647 -0.021567 -0.00810495 0.0144153 -0.0358283
