nng 0.526887 0.160319 -0.317180 -0.441816 0.093221 -0.283797 -0.228706 0.119424 0.016269 -0.278340 -0.096402 0.169335 -0.415986 -0.201622 0.439730 0.222808
ec 0.663813 0.183536 -0.477277 -0.477932 -0.087954 -0.458742 -0.182929 0.296298 0.035448 0.040613 0.026919 -0.070428 0.153372 -0.226588 0.675992 0.185597
vv 0.411164 0.126213 -0.430074 -0.494434 0.109290 -0.431048 0.210075 0.001105 -0.275518 -0.387087 -0.115797 -0.077002 -0.189263 -0.269716 0.681014 -0.089171
jkb 0.481096 0.311520 -0.403253 -0.304662 -0.024892 -0.154930 0.071196 -0.082553 -0.087335 -0.003841 -0.030404 0.125001 -0.359520 -0.201577 0.656431 0.353979
etm 0.541663 0.324278 -0.262215 -0.525438 0.202757 -0.366877 -0.404204 0.194539 0.083556 0.029023 0.016829 -0.364820 -0.192475 -0.233581 0.552936 0.236171
nnp 0.745294 0.103164 -0.602932 -0.297052 -0.000559 -0.190913 -0.293157 -0.063355 0.182976 -0.251873 -0.066605 0.411737 -0.799617 0.116855 0.178749 0.095264
nnb 0.669470 0.086313 -0.384636 -0.352407 0.484462 -0.327572 0.038396 0.124773 -0.157697 0.012972 -0.030802 0.251404 -0.232921 0.089874 0.633121 0.387105
sn 0.683246 0.307825 -0.329647 -0.635102 -0.039797 0.229629 0.048304 -0.153731 -0.505818 -0.140716 -0.111830 0.012590 -0.668043 0.634816 0.447382 0.489155
jko 0.436538 0.223141 -0.287673 -0.563333 -0.134147 -0.154352 0.094662 -0.100320 -0.053345 0.079808 0.098734 0.296697 -0.196198 -0.492074 0.642348 0.448221
xsv 0.167350 0.367683 -0.359910 -0.602574 -0.112960 -0.368909 0.192912 0.171289 -0.080035 -0.417535 -0.089528 0.251833 -0.276895 -0.188095 0.774042 -0.001627
jx 0.423406 0.361110 -0.452903 -0.115648 0.114241 -0.406449 0.057929 -0.074407 -0.022041 0.030722 -0.182844 -0.029948 -0.355850 -0.260894 0.590316 0.418378
jks 0.450759 0.216278 -0.359184 -0.295486 -0.031743 -0.323718 -0.049526 -0.209437 -0.050448 0.104005 -0.168012 0.023467 -0.199823 -0.476274 0.585486 0.383065
ep 0.672687 0.080153 -0.331578 -0.506644 0.002390 -0.059266 -0.040639 0.254972 -0.420503 -0.238703 0.118035 -0.273857 -0.242737 -0.555308 0.487299 0.273556
jkg 0.308929 0.508054 -0.358172 -0.308809 0.056146 -0.339174 -0.142513 -0.016883 0.100201 -0.202968 -0.080081 0.037251 -0.512128 -0.107774 0.510821 0.314780
ss 0.395313 -0.179028 -0.676571 -0.078931 -0.037712 -0.796254 -0.472720 -0.403639 -0.076902 -0.297425 0.310370 -0.044067 -0.652553 0.266680 0.004641 0.490920
xsn 0.337421 0.212762 -0.282518 -0.484668 0.259975 -0.377180 -0.234975 0.057881 -0.025221 -0.336105 -0.414192 -0.114872 -0.184014 -0.275087 0.496780 0.414349
mag 0.664329 -0.007456 -0.388650 -0.330269 0.113745 -0.502365 -0.125132 -0.101751 -0.150029 -0.082664 -0.343665 -0.304128 -0.066462 -0.413596 0.526538 0.086258
vcp 0.278030 0.113852 -0.328854 -0.299784 0.294129 -0.489811 -0.071172 -0.517931 -0.343059 -0.050309 -0.164932 0.017685 -0.273313 -0.412645 0.620971 0.121912
na 0.579184 -0.129332 -0.616228 -0.416798 -0.095964 -0.371994 0.056446 -0.350242 0.191732 -0.058271 0.450445 -0.087344 -0.831506 0.093891 0.252708 0.134622
sp 0.588422 0.262497 -0.455795 0.024931 -0.027419 -0.268803 -0.268978 -0.032807 -0.123426 -0.198009 -0.267105 0.096162 -0.487130 0.007143 0.439666 0.405092
vx 0.526052 -0.023432 -0.243904 -0.665315 -0.075790 -0.251101 0.008718 -0.051445 -0.349180 -0.207837 -0.118471 -0.169001 -0.075182 -0.745489 0.628923 -0.032576
va 0.627330 -0.272146 -0.377981 -0.319057 0.116235 -0.533884 -0.032381 -0.187000 -0.349496 -0.163612 -0.498273 -0.079596 -0.051262 -0.395106 0.667564 -0.183055
jc 0.471775 0.463412 -0.154871 -0.406157 -0.187121 -0.111666 -0.269417 0.028637 0.261103 -0.176126 -0.368541 0.401833 -0.669330 -0.301219 0.417364 0.285042
sf 0.718704 -0.331617 -0.726085 0.373324 0.487041 -0.946417 -0.142513 -0.074600 -0.428937 -0.138946 -0.120173 -0.659641 -0.165159 -0.046747 0.541605 0.332645
sl 0.440146 0.134739 -0.629526 -0.341913 0.012376 -0.455874 -0.428996 0.164633 0.033009 0.060606 0.126583 0.241641 -0.940277 0.444950 0.274880 0.096353
mm 0.637788 0.176824 -0.387952 -0.427065 0.288101 -0.589805 -0.131838 -0.280689 -0.065768 -0.191657 -0.376627 -0.160661 -0.177503 -0.306976 0.240833 0.164266
xr 0.660384 0.230832 0.767049 -0.299216 0.001163 -0.605794 -0.246741 -0.039876 0.069471 -0.165021 -0.000981 -0.119328 -0.638297 -0.646798 1.025223 -0.297990
np 0.769685 -0.053001 -0.294884 -0.504031 0.376123 -0.761310 -0.278875 -0.276013 -0.143676 -0.244621 -0.592033 -0.302402 0.049389 -0.411282 0.194417 0.110316
sw 0.708273 -0.658031 0.007187 -0.356133 -0.599509 -0.425255 0.577895 0.433320 -0.397132 -0.116141 -0.294136 -0.131895 -0.954336 0.560582 0.303456 1.002723
nr 0.622279 0.408010 -0.053978 -0.873665 0.612733 -0.114660 0.161283 0.050109 -0.687367 -0.264287 -0.125417 0.525667 -0.167807 0.614170 0.520576 1.004316
xsa -0.286291 -0.569651 -0.535903 -0.845178 0.068245 -0.001752 -0.486421 -0.019852 0.279231 0.002924 -0.604435 -0.214649 -0.347636 -0.649885 1.183259 -0.004589
maj 0.623030 0.125422 -0.402210 -0.242253 0.238031 -0.575572 -0.271218 -0.297409 -0.067376 -0.227412 -0.603942 -0.334393 -0.190177 -0.482978 0.280156 0.218899
etn 0.685889 0.171997 -0.331050 -0.745796 -0.064168 -0.397773 -0.372626 0.213802 0.094598 -0.054611 -0.118140 -0.218988 0.102340 -0.492392 0.477949 0.077230
xpn 0.376479 0.197003 -0.250889 -0.424930 -0.074519 -0.317216 -0.159166 0.096561 0.205894 -0.335456 -0.061496 0.179269 -0.634627 -0.178721 0.377140 0.353097
ef 0.688678 -0.062400 -0.424479 -0.766230 -0.225014 -1.319087 -0.266005 -0.866227 0.131109 0.303528 -0.686834 -0.628822 0.396314 0.054445 0.147993 0.057608
vcn 0.714107 0.361601 -0.504600 -0.897261 0.587226 -0.479179 -0.900138 -1.153956 -0.185411 0.125074 -0.558958 0.159482 0.294473 -0.663489 0.385006 -0.595745
so 0.881817 -0.230062 -0.387237 -0.075377 0.614692 -0.174137 -0.159297 -0.223592 -0.465088 0.279962 0.055313 0.057867 -0.548908 0.765446 0.696959 0.520675
jkc 0.456730 -0.048577 -0.370475 -0.734097 0.658865 -1.626455 0.000830 -0.253331 0.557844 0.420343 -0.566940 0.782282 0.109263 -0.671726 0.328595 0.044748
se 0.291495 0.066348 -0.416981 -0.427984 -0.241614 -0.747635 -0.460365 -0.823644 0.110485 -0.265432 -0.023695 0.006866 -0.434440 0.175332 -0.135024 0.683083
ic 1.196176 -0.755223 -0.775460 -0.134906 -0.472559 -1.151721 -0.740031 -1.117642 -0.255963 -0.001379 -0.739701 -0.104522 0.157480 -0.172345 -0.265331 0.285729
sh 0.273716 -0.200953 -0.534362 -0.755333 -0.379437 -0.856286 -0.776755 -0.420475 0.454553 -0.765521 0.470462 0.668143 -0.741357 0.264269 -0.318694 0.532471
jkq 0.245010 -0.340256 -0.533284 -1.213987 -1.288241 -1.089647 -0.243550 -0.542039 0.107028 0.249228 0.577007 0.464425 0.229522 -0.034130 -0.112982 0.574170
jkv 0.497763 -0.293133 -0.881480 0.154706 -0.231024 -0.868269 -0.539439 -0.783034 0.197512 -0.006483 -0.006857 -0.261548 -0.752441 0.260114 0.017014 0.212469
